SVM-light Version V6.02
0 # kernel type
3 # kernel parameter -d 
1 # kernel parameter -g 
1 # kernel parameter -s 
1 # kernel parameter -r 
empty# kernel parameter -u 
8172 # highest feature index 
5485 # number of training documents 
1238 # number of support vectors plus 1 
1.1544428 # threshold b, each following line is a SV (starting with alpha*y)
-566.53888571579159361135680228472 8:0.016384553 10:0.019789666 18:0.021749511 25:0.033538625 38:0.016767683 44:0.013149623 50:0.0055565289 54:0.01810213 96:0.00084517273 124:0.00035734026 126:0.0059264963 127:0.0013702284 133:0.0026865716 147:0.0022198537 200:0.0052741929 201:0.014689588 299:0.0022997088 305:0.0033347225 313:0.0029094089 358:0.0010465623 430:0.0012855664 458:0.0020801506 459:0.0016814971 479:0.0034885367 529:0.00045332962 542:0.00629802 608:0.0036667094 688:0.0010800606 730:0.0013370522 735:0.0015095737 765:0.00076288299 770:0.0021074559 805:0.0017250171 842:0.0023054637 904:0.0010132007 943:0.0016537941 952:0.003111905 996:0.0025563736 1083:0.00030468579 1164:0.00024531482 1214:0.0017381095 1436:7.5814693e-05 1461:0.00084322499 1469:0.00013129524 1602:0.00028902653 1608:0.0013359392 1862:0.0020361268 1920:0.00016296659 2125:0.00019040664 2322:0.00025224363 2529:0.00013224162 2530:0.00013224162 3287:0.00022425821 3449:5.3055381e-05 3457:0.00023670334 5767:8.3212457e-05 5974:8.8161076e-05 #
566.53888571579159361135680228472 5:0.00692527 6:0.0061012879 8:0.016384553 10:0.019789666 14:0.0094003771 18:0.021749511 25:0.033538625 26:0.012593169 35:0.0074010426 38:0.016767683 40:0.019268874 54:0.01810213 77:0.0016064595 80:0.0052598831 96:0.00084517273 131:0.0044333953 132:0.0012673686 197:0.0035134612 201:0.014689588 212:0.00053734303 267:0.005499742 291:0.0027949237 327:0.0027215697 348:0.0031609824 357:0.0017931662 363:0.0021962137 514:0.0021314137 550:0.0075062169 556:0.0032876073 652:0.0031660551 658:0.00060201826 687:0.00088510942 703:0.0026281516 709:0.0025812942 727:0.0013097937 729:0.0009953283 730:0.0013370522 778:0.00068474672 1032:0.0010034023 1160:0.0012450584 1195:0.0015206819 1223:0.00041882473 1260:0.0012440326 1286:0.00021359415 1471:0.0027816261 1518:0.00124279 1585:0.0005389782 1646:0.00057212636 1917:0.00087978906 1988:0.00065064867 2059:0.0031319596 2084:0.0010981801 2264:0.00033284983 2362:0.00056861021 2469:0.0002213275 3734:0.00016642491 4470:0.00026126445 6064:0.00031524154 6065:5.2540261e-05 6066:9.6620803e-05 6067:4.0665542e-05 6068:0.0001449312 6069:4.4080538e-05 6070:4.5836092e-05 #
-566.53888571579159361135680228472 5:0.00692527 6:0.0061012879 8:0.016384553 10:0.019789666 16:0.003842247 25:0.033538625 26:0.012593169 30:0.0022381698 38:0.016767683 40:0.019268874 41:0.0037066876 44:0.013149623 59:0.0035129234 66:0.0014751933 84:0.0035845381 87:0.0033595709 96:0.00084517273 101:0.00070652307 124:0.00035734026 149:0.0047317133 201:0.014689588 226:0.0011315821 248:0.0044215857 249:0.0098167723 260:0.0055479272 306:0.0042380076 326:0.0018623009 440:0.00072495395 458:0.0020801506 535:0.0015148964 599:0.0022026142 602:0.00049373577 607:0.0027697606 615:0.00052648137 630:0.00075906527 634:0.001456844 647:0.00077110273 663:4.5836092e-05 664:4.5836092e-05 716:0.00076288299 755:0.00054512697 797:0.0019823406 966:0.0027585521 1044:0.0010247302 1248:0.00087223045 1331:0.00022558312 1332:0.00067078409 1409:0.0014513195 1609:0.00046201985 1791:0.00023028179 1819:0.00068887346 2352:0.00026890708 2583:0.00092167687 2970:0.00030261322 2993:0.00034902061 3121:0.00044317648 3385:0.00013470995 3867:0.00016735162 3964:0.00013258604 5271:0.00014405863 6465:0.00010371636 7524:3.3677486e-05 #
-388.74328467177576840185793116689 3:0.0036967595 8:0.016384553 9:0.016393851 10:0.019789666 25:0.033538625 26:0.012593169 34:0.0054362128 40:0.019268874 96:0.00084517273 114:0.0020065259 121:0.0055785002 133:0.0026865716 160:0.0086860526 229:0.00068918511 291:0.0027949237 309:0.00039338437 465:0.0073727644 813:0.00050299463 988:0.00011955204 1026:0.00031591678 1035:0.0016824227 1116:0.0012662294 1127:0.000436776 1227:0.00082130806 1339:0.0018238428 1374:0.00035485515 1787:0.0004567471 1915:0.00067153171 1956:0.0001956596 5094:0.00011739576 #
351.65456658635395115197752602398 7:0.0081517985 8:0.016384553 9:0.016393851 10:0.019789666 13:0.0021064437 15:0.0023581535 16:0.003842247 17:0.0063943076 18:0.021749511 25:0.033538625 26:0.012593169 27:0.001550884 28:0.0096869301 38:0.016767683 45:0.0050908024 96:0.00084517273 102:0.0068200324 105:0.016319668 142:0.006261297 160:0.0086860526 197:0.0035134612 272:0.0045888005 367:0.0024183965 449:0.0058757663 465:0.0073727644 490:0.0010422411 633:0.0031463953 719:0.0034205627 844:0.0055944812 1037:0.00087460934 1225:0.0020562089 6680:0.00050419697 6681:0.00050419697 6683:9.6620803e-05 7819:5.2540261e-05 #
566.53888571579159361135680228472 3:0.0036967595 7:0.0081517985 8:0.016384553 9:0.016393851 10:0.019789666 12:0.0088669201 14:0.0094003771 17:0.0063943076 18:0.021749511 24:0.0094825402 25:0.033538625 26:0.012593169 28:0.0096869301 30:0.0022381698 32:0.0046225982 33:0.0037169838 38:0.016767683 40:0.019268874 41:0.0037066876 44:0.013149623 46:0.0021581934 48:0.0015171721 49:0.001254169 54:0.01810213 57:0.0026196798 71:0.0064679445 73:0.0071287141 96:0.00084517273 97:0.0028694861 98:0.00051009952 99:0.00033705472 100:0.00080369506 101:0.00070652307 102:0.0068200324 103:0.0082521904 104:0.0007545937 105:0.016319668 106:0.0017681972 107:0.0059442255 108:5.2540261e-05 109:0.0014971228 110:0.0014844281 111:0.00077264529 112:8.5437656e-05 113:0.00069607672 114:0.0020065259 115:0.00036657258 116:0.0058823037 117:0.001006885 118:0.0001336249 119:0.0016499133 120:0.0016063056 121:0.0055785002 122:0.00045517518 123:7.2871364e-05 124:0.00035734026 125:0.00067901798 126:0.0059264963 127:0.0013702284 128:0.0009960637 129:0.00084910949 130:0.0074554086 131:0.0044333953 132:0.0012673686 133:0.0026865716 134:0.0022695991 135:0.0030232377 136:0.00090351363 137:0.0075839534 138:0.00043429405 139:5.2540261e-05 140:5.2540261e-05 141:0.0007176731 142:0.006261297 143:0.0033244949 144:0.00018579369 145:0.0011955893 146:0.0027534699 147:0.0022198537 148:0.0033664149 149:0.0047317133 150:0.003141888 151:0.00035190847 152:0.00025210262 153:0.00023981376 154:0.0027673454 155:0.00098243845 156:0.00040224235 157:0.00042744982 158:0.0020485534 159:0.0012432248 160:0.0086860526 161:0.00033928521 162:4.8310401e-05 163:0.0002627013 164:0.0051268889 165:4.8310401e-05 166:0.00013224162 167:4.8310401e-05 168:0.0011827883 169:0.00033406226 170:0.0025355674 171:0.0011286456 172:0.00010470618 173:0.00086431153 174:0.00031949638 175:0.0010596123 176:0.00057865371 177:0.00036220497 178:0.00013224162 179:0.0015658592 180:0.0043829381 181:0.0014312123 182:4.8310401e-05 183:0.00015762077 184:9.6620803e-05 185:0.00065064867 186:4.8310401e-05 187:0.0027644807 188:0.0027945316 189:4.8310401e-05 190:0.0045617339 191:5.2540261e-05 192:5.2540261e-05 193:0.00010021868 194:0.0080064787 195:0.0041628671 196:0.0060827904 197:0.0035134612 198:0.000919807 199:0.0018086466 200:0.0052741929 201:0.014689588 202:0.0021653189 203:4.5836092e-05 204:5.2540261e-05 205:5.2540261e-05 206:0.00016642491 207:0.00053781416 208:0.0039724386 209:0.00013750826 210:0.0021755712 211:0.0033291113 212:0.00053734303 213:0.00029148546 214:0.0011974461 215:0.0012909906 216:0.0010296942 217:0.0017320096 218:0.00058287493 219:0.00053018442 220:0.00321993 221:9.6620803e-05 222:0.00056839624 223:0.0017740187 224:5.2540261e-05 225:0.00011951425 226:0.0011315821 227:0.00062042009 228:0.00037547309 229:0.00068918511 230:0.00034054011 231:0.00060867326 232:0.00015940271 233:0.00046531504 234:5.2540261e-05 235:0.00026942277 236:0.0012125093 237:5.2540261e-05 #
-566.53888571579159361135680228472 8:0.016384553 10:0.019789666 13:0.0021064437 24:0.0094825402 25:0.033538625 27:0.001550884 28:0.0096869301 32:0.0046225982 33:0.0037169838 51:0.0046684179 96:0.00084517273 103:0.0082521904 105:0.016319668 135:0.0030232377 137:0.0075839534 160:0.0086860526 219:0.00053018442 267:0.005499742 268:0.0027653328 272:0.0045888005 383:0.0036554183 394:0.0044576922 449:0.0058757663 585:0.0019130638 633:0.0031463953 707:0.0015271738 866:0.00085804967 870:0.0016762251 888:0.0012901955 933:0.00040327304 950:0.0017442683 1035:0.0016824227 1287:0.0015689215 1339:0.0018238428 1375:0.00081776554 1388:0.00091294228 1469:0.00013129524 1486:0.00075803284 1751:0.00050240447 1915:0.00067153171 2419:0.00080216059 5800:8.8161076e-05 #
566.53888571579159361135680228472 3:0.0036967595 5:0.00692527 6:0.0061012879 7:0.0081517985 8:0.016384553 17:0.0063943076 18:0.021749511 24:0.0094825402 25:0.033538625 40:0.019268874 43:0.010510835 96:0.00084517273 148:0.0033664149 160:0.0086860526 195:0.0041628671 201:0.014689588 306:0.0042380076 310:0.0035155544 394:0.0044576922 471:0.0039646924 633:0.0031463953 642:0.0012554848 726:0.00078498473 727:0.0013097937 728:0.00038141757 810:0.00055689929 1135:0.00077076076 1182:0.0021691408 1441:0.0015766248 2547:0.0013081729 2769:0.00047525077 3246:0.0012797446 3247:0.00037445608 3248:0.00031305535 #
566.53888571579159361135680228472 7:0.0081517985 8:0.016384553 10:0.019789666 12:0.0088669201 16:0.003842247 17:0.0063943076 18:0.021749511 24:0.0094825402 25:0.033538625 26:0.012593169 28:0.0096869301 30:0.0022381698 34:0.0054362128 38:0.016767683 40:0.019268874 41:0.0037066876 43:0.010510835 44:0.013149623 49:0.001254169 51:0.0046684179 54:0.01810213 56:0.0037437617 66:0.0014751933 71:0.0064679445 73:0.0071287141 77:0.0016064595 78:0.0030796931 80:0.0052598831 81:0.00058382156 84:0.0035845381 89:0.0040338906 96:0.00084517273 101:0.00070652307 107:0.0059442255 116:0.0058823037 119:0.0016499133 120:0.0016063056 121:0.0055785002 126:0.0059264963 131:0.0044333953 137:0.0075839534 146:0.0027534699 149:0.0047317133 158:0.0020485534 159:0.0012432248 164:0.0051268889 176:0.00057865371 180:0.0043829381 181:0.0014312123 190:0.0045617339 194:0.0080064787 196:0.0060827904 201:0.014689588 211:0.0033291113 212:0.00053734303 217:0.0017320096 218:0.00058287493 223:0.0017740187 226:0.0011315821 230:0.00034054011 249:0.0098167723 260:0.0055479272 261:0.0061365482 267:0.005499742 268:0.0027653328 271:0.0062686671 272:0.0045888005 277:0.0059152646 278:0.002992729 279:0.000442655 280:0.00028812551 281:0.0025997253 282:5.2540261e-05 283:0.0062527424 284:0.0018264486 285:0.00013750826 286:0.0017849068 287:0.00052865205 288:0.0029193591 289:0.0010806832 290:0.0011382346 291:0.0027949237 292:0.0026715735 293:4.8310401e-05 294:0.003883918 295:0.00023028179 296:0.00040134552 297:0.00013063222 298:0.00040327304 299:0.0022997088 300:9.1672184e-05 301:0.00058006606 302:0.00012815649 303:0.0008765987 304:0.00010470618 305:0.0033347225 306:0.0042380076 307:0.0038748032 308:0.00023099661 309:0.00039338437 310:0.0035155544 311:0.00036657258 312:0.00021361644 313:0.0029094089 314:0.0012565809 315:0.00028426232 316:0.00015601589 317:0.003806636 318:0.0049058772 319:0.0020132933 320:0.00018953675 321:0.0015024155 322:0.00034457553 323:0.00041648315 324:0.0012808595 325:0.00012481869 326:0.0018623009 327:0.0027215697 328:0.00045766853 329:0.00024399324 330:0.002108996 331:0.0015102972 332:0.0024832881 333:9.1672184e-05 334:0.00089903956 335:0.0017145571 336:9.1672184e-05 337:0.0033616312 338:0.0021260618 339:0.00018217841 340:0.00020803115 341:9.6620803e-05 342:0.0011984016 343:0.00139645 344:8.5437656e-05 345:0.0015957316 346:0.00094602874 347:0.0005114947 348:0.0031609824 349:0.00033202121 350:0.0076549812 351:9.6620803e-05 352:0.0014391096 353:9.6620803e-05 354:8.5437656e-05 355:0.00057447283 356:0.00061876723 357:0.0017931662 358:0.0010465623 359:0.0033428811 360:0.0023017763 361:0.00077749952 362:0.0050598066 363:0.0021962137 364:0.0019953223 365:0.00021353501 366:0.0013072112 367:0.0024183965 368:0.0004321759 369:0.00059754419 370:0.0030245529 371:0.00017087531 372:0.00018334437 373:0.00018688185 374:0.00019244484 375:0.0055939667 376:0.0006593095 377:0.0023753934 378:0.00017087531 379:0.00031021005 380:0.00063169404 381:0.0011792397 382:0.00061076001 383:0.0036554183 384:0.0012415339 385:0.00059693941 386:0.001897959 387:0.0021137008 388:4.4080538e-05 389:0.0046635531 390:0.0019806358 391:0.0010918716 392:0.00031203177 393:4.1606228e-05 394:0.0044576922 395:0.0030973493 396:3.8488968e-05 397:0.00022425821 398:0.00034323495 399:9.1672184e-05 400:0.00039444939 401:0.0015340776 402:0.00029184975 403:5.2540261e-05 404:3.7907346e-05 405:0.0016288254 406:0.0021923161 407:0.0029432345 408:0.00045275621 409:0.00027895474 410:0.002992959 411:0.00021714703 412:0.00028985238 413:0.00030183748 414:0.00080373429 415:0.00017810409 416:0.00016573255 417:0.00017632215 418:0.00048400968 419:8.5437656e-05 420:0.0087039359 421:0.00066976639 422:0.00048547616 423:0.00096283178 424:0.0011148122 425:0.00010930705 426:0.0015029378 427:0.005176858 428:0.00045116624 429:0.00046307064 430:0.0012855664 431:0.00025821541 432:0.00034530056 433:0.0014799988 434:0.00012481869 435:0.00068246207 436:0.00015940271 437:0.00046671918 438:0.00027895474 439:0.00025480762 440:0.00072495395 441:0.0019715028 442:0.0033286386 #
-566.53888571579159361135680228472 8:0.016384553 10:0.019789666 12:0.0088669201 16:0.003842247 17:0.0063943076 18:0.021749511 24:0.0094825402 25:0.033538625 26:0.012593169 28:0.0096869301 30:0.0022381698 31:0.0062816199 32:0.0046225982 33:0.0037169838 34:0.0054362128 35:0.0074010426 37:0.0083792442 38:0.016767683 40:0.019268874 41:0.0037066876 42:0.006629345 44:0.013149623 51:0.0046684179 54:0.01810213 56:0.0037437617 57:0.0026196798 71:0.0064679445 73:0.0071287141 77:0.0016064595 87:0.0033595709 101:0.00070652307 105:0.016319668 114:0.0020065259 116:0.0058823037 125:0.00067901798 126:0.0059264963 135:0.0030232377 136:0.00090351363 137:0.0075839534 155:0.00098243845 158:0.0020485534 160:0.0086860526 164:0.0051268889 170:0.0025355674 171:0.0011286456 176:0.00057865371 179:0.0015658592 180:0.0043829381 194:0.0080064787 200:0.0052741929 201:0.014689588 208:0.0039724386 220:0.00321993 223:0.0017740187 229:0.00068918511 243:0.00034561506 248:0.0044215857 249:0.0098167723 254:0.0018404634 261:0.0061365482 269:0.00059616903 284:0.0018264486 296:0.00040134552 310:0.0035155544 319:0.0020132933 330:0.002108996 332:0.0024832881 348:0.0031609824 350:0.0076549812 356:0.00061876723 360:0.0023017763 364:0.0019953223 366:0.0013072112 375:0.0055939667 377:0.0023753934 384:0.0012415339 385:0.00059693941 389:0.0046635531 400:0.00039444939 401:0.0015340776 410:0.002992959 415:0.00017810409 416:0.00016573255 424:0.0011148122 456:0.0036858167 504:0.0026680927 529:0.00045332962 542:0.00629802 568:0.0052596023 597:0.0023130823 598:0.001355767 599:0.0022026142 613:0.001811199 615:0.00052648137 628:0.00062194944 646:0.0012868942 679:0.00015422056 688:0.0010800606 717:0.0011827883 720:0.0008045705 726:0.00078498473 767:0.0016119012 806:0.00093149877 817:0.0023328962 837:0.00042040224 843:0.00087782199 868:0.0016905296 884:6.6293018e-05 893:0.0010426068 895:0.0015071342 928:0.0005964014 955:0.0003789308 960:0.0012817176 1005:0.00098268921 1035:0.0016824227 1095:0.001849775 1107:0.00050543569 1113:0.00090526324 1135:0.00077076076 1179:0.0005799387 1181:0.00026941989 1200:3.8488968e-05 1218:0.00053765136 1325:0.00023902851 1339:0.0018238428 1365:0.00081460527 1369:0.0011393888 1373:0.0010658612 1388:0.00091294228 1431:0.00075241888 1434:0.00063339807 1437:0.00078997726 1543:0.00044126 1555:0.00071642839 1571:0.0016111674 1608:0.0013359392 1646:0.00057212636 1852:3.9850678e-05 1919:0.00031051377 2052:0.00055746123 2166:0.00023573905 2190:0.00031203177 2194:7.3775838e-05 2230:0.00052549253 2291:0.00072771893 2302:0.00072336086 2306:0.00016448699 2315:0.00042077061 2390:6.7922745e-05 2786:0.00049350574 2793:0.00035677812 2840:0.00048873451 3049:0.00021578654 3258:0.00070437457 3274:0.00018085056 3318:7.270545e-05 3335:8.5284591e-05 3344:0.00010477291 3555:0.00019738439 3583:0.00030065601 3646:0.00016642491 3715:0.00016329029 3717:7.6977936e-05 3877:0.00026758361 4102:0.00012481271 4281:4.6348789e-05 4485:0.0002973151 4495:6.7354973e-05 4496:3.5620818e-05 5269:0.00021607788 5543:9.4172879e-05 6632:2.7454071e-05 7294:2.6614251e-05 #
-566.53888571579159361135680228472 8:0.016384553 9:0.016393851 10:0.019789666 11:0.0071980599 12:0.0088669201 14:0.0094003771 16:0.003842247 18:0.021749511 24:0.0094825402 25:0.033538625 26:0.012593169 27:0.001550884 30:0.0022381698 31:0.0062816199 32:0.0046225982 33:0.0037169838 36:0.0039932295 37:0.0083792442 38:0.016767683 40:0.019268874 43:0.010510835 44:0.013149623 45:0.0050908024 46:0.0021581934 47:0.00044218585 49:0.001254169 50:0.0055565289 51:0.0046684179 54:0.01810213 56:0.0037437617 57:0.0026196798 73:0.0071287141 83:0.0023650767 96:0.00084517273 103:0.0082521904 126:0.0059264963 130:0.0074554086 131:0.0044333953 134:0.0022695991 135:0.0030232377 137:0.0075839534 142:0.006261297 160:0.0086860526 168:0.0011827883 179:0.0015658592 180:0.0043829381 190:0.0045617339 194:0.0080064787 201:0.014689588 215:0.0012909906 249:0.0098167723 294:0.003883918 309:0.00039338437 318:0.0049058772 331:0.0015102972 387:0.0021137008 420:0.0087039359 424:0.0011148122 464:0.010258848 465:0.0073727644 472:0.0012310406 489:4.8310401e-05 525:0.0045690723 535:0.0015148964 585:0.0019130638 719:0.0034205627 793:0.0008313586 855:0.0015956238 870:0.0016762251 954:0.0014399011 1026:0.00031591678 1043:0.0012407072 1080:0.0014242565 1112:0.0011537983 1127:0.000436776 1163:0.0011055028 1195:0.0015206819 1282:0.00022467751 1374:0.00035485515 1483:0.00051388663 1484:0.00046804768 1486:0.00075803284 1677:0.00059286039 2123:0.00039537251 2949:0.00044943756 2950:0.00028200692 #
-566.53888571579159361135680228472 8:0.016384553 10:0.019789666 12:0.0088669201 16:0.003842247 18:0.021749511 24:0.0094825402 25:0.033538625 26:0.012593169 28:0.0096869301 30:0.0022381698 35:0.0074010426 38:0.016767683 39:0.0020475839 40:0.019268874 43:0.010510835 44:0.013149623 46:0.0021581934 51:0.0046684179 52:0.0032175416 54:0.01810213 56:0.0037437617 57:0.0026196798 65:0.0026063072 71:0.0064679445 73:0.0071287141 77:0.0016064595 84:0.0035845381 96:0.00084517273 102:0.0068200324 105:0.016319668 114:0.0020065259 116:0.0058823037 119:0.0016499133 120:0.0016063056 126:0.0059264963 127:0.0013702284 132:0.0012673686 133:0.0026865716 136:0.00090351363 137:0.0075839534 142:0.006261297 149:0.0047317133 151:0.00035190847 154:0.0027673454 155:0.00098243845 158:0.0020485534 161:0.00033928521 168:0.0011827883 170:0.0025355674 171:0.0011286456 173:0.00086431153 177:0.00036220497 180:0.0043829381 187:0.0027644807 194:0.0080064787 195:0.0041628671 196:0.0060827904 199:0.0018086466 200:0.0052741929 201:0.014689588 202:0.0021653189 208:0.0039724386 210:0.0021755712 223:0.0017740187 243:0.00034561506 248:0.0044215857 260:0.0055479272 261:0.0061365482 265:0.01007227 267:0.005499742 271:0.0062686671 272:0.0045888005 291:0.0027949237 292:0.0026715735 306:0.0042380076 307:0.0038748032 313:0.0029094089 318:0.0049058772 322:0.00034457553 330:0.002108996 331:0.0015102972 332:0.0024832881 335:0.0017145571 339:0.00018217841 348:0.0031609824 355:0.00057447283 359:0.0033428811 360:0.0023017763 367:0.0024183965 381:0.0011792397 390:0.0019806358 392:0.00031203177 394:0.0044576922 395:0.0030973493 401:0.0015340776 427:0.005176858 441:0.0019715028 442:0.0033286386 463:0.0057069832 476:0.0074809957 477:0.00063983357 490:0.0010422411 504:0.0026680927 510:0.0018483166 519:0.00247108 523:0.0040119756 529:0.00045332962 541:0.0015039524 542:0.00629802 550:0.0075062169 565:0.0022224227 576:0.0020282923 584:0.0015027506 597:0.0023130823 598:0.001355767 607:0.0027697606 613:0.001811199 614:0.00039033062 625:0.00090786989 628:0.00062194944 633:0.0031463953 645:0.0015571482 649:0.00086981955 687:0.00088510942 705:0.0012942578 707:0.0015271738 719:0.0034205627 722:0.0023503609 724:0.0033083567 729:0.0009953283 735:0.0015095737 743:0.0031776363 765:0.00076288299 770:0.0021074559 771:0.00019360252 779:0.00014755168 801:0.00061552029 803:0.00094984402 804:0.0019103683 805:0.0017250171 817:0.0023328962 818:0.00056217046 821:0.00025267762 824:0.00029670651 827:0.0021927487 831:0.0016546856 856:0.002201583 857:0.0011212346 870:0.0016762251 899:0.00033740053 904:0.0010132007 912:0.00080363738 920:0.00023028179 929:0.00037929276 930:0.00060398952 950:0.0017442683 960:0.0012817176 979:0.0026475415 980:0.0021261219 1025:0.00080426852 1027:0.00098614232 1042:0.0023669985 1045:0.0064050201 1057:0.00075535092 1070:0.00038464295 1077:0.0021132559 1083:0.00030468579 1092:0.00036606001 1095:0.001849775 1101:0.0012506599 1120:0.0014294485 1124:0.00060391118 1134:0.0015072133 1145:0.0008552699 1178:0.00072612817 1188:0.001090288 1196:0.00042128874 1213:0.0012438989 1229:0.00017625433 1244:0.00020043735 1245:0.0001734999 1247:0.00028082859 1369:0.0011393888 1388:0.00091294228 1394:0.00090176298 1395:0.0023879686 1401:0.00048889976 1411:0.00074107462 1426:0.00026517207 1441:0.0015766248 1443:0.000763305 1451:0.00072922319 1524:0.00077961321 1525:0.00032708643 1528:0.00098604325 1547:0.00037012933 1571:0.0016111674 1585:0.0005389782 1605:0.000193021 1608:0.0013359392 1612:0.0004481111 1621:0.00026973319 1720:0.00062114646 1739:0.0015318921 1740:0.00056103634 1791:0.00023028179 1801:0.00051601569 1811:0.0001271392 1814:0.00017128016 1844:0.00039965371 1863:0.0012158417 1895:0.00042178354 1917:0.00087978906 1978:0.00035186432 2041:8.1331083e-05 2052:0.00055746123 2058:0.00013960824 2066:0.00041362381 2074:0.00014723814 2118:0.00055177795 2119:0.00012337643 2120:0.0006485515 2136:0.00061811547 2149:0.0014606927 2244:0.00011516329 2356:0.00097537827 2367:0.0022311688 2412:0.00045488818 2462:0.00076514931 2475:0.00024934573 2483:0.00045116624 2517:0.00089177443 2536:0.0013816967 2538:0.00026517207 2546:0.00059375225 2619:0.0014771614 2692:9.4754105e-05 2700:0.00014405863 2717:0.00023236101 2730:0.00039616125 2759:5.5951921e-05 2761:0.00041423086 2803:0.00041181105 2831:0.00033634718 2840:0.00048873451 2992:0.00025427839 3062:0.00011546691 3230:0.00062170648 3279:0.00088437169 3386:0.00024962542 3416:0.00013828848 3420:0.00013703643 3457:0.00023670334 3492:0.00011516329 3555:0.00019738439 3567:0.00031017681 3642:0.00029510335 3659:0.00035190847 3752:0.00016520538 3757:0.00064784783 3822:0.00035677812 4032:0.00097525219 4049:0.00013703643 4087:0.00014950547 4203:0.00063612254 4250:0.00014939281 4278:3.9850678e-05 4281:4.6348789e-05 4282:0.00014333769 4304:0.00018688185 4386:8.8161076e-05 4470:0.00026126445 4487:0.00045826123 4824:0.00047820815 4946:0.00014950547 5003:0.00020064504 5216:0.00018953675 5363:8.3212457e-05 5463:0.00081927882 5464:0.00033199126 5522:0.000129711 5672:0.00011066375 5706:0.00012815649 6094:7.8263838e-05 6439:4.5836092e-05 6728:7.3775838e-05 6756:3.6887919e-05 6856:3.457212e-05 7435:3.5620818e-05 7736:5.6856396e-05 7838:3.457212e-05 7840:4.5836092e-05 7842:4.2718828e-05 #
-566.53888571579159361135680228472 6:0.0061012879 7:0.0081517985 8:0.016384553 10:0.019789666 18:0.021749511 24:0.0094825402 25:0.033538625 26:0.012593169 30:0.0022381698 31:0.0062816199 40:0.019268874 54:0.01810213 72:0.0023691521 96:0.00084517273 126:0.0059264963 150:0.003141888 201:0.014689588 226:0.0011315821 248:0.0044215857 267:0.005499742 305:0.0033347225 310:0.0035155544 335:0.0017145571 357:0.0017931662 383:0.0036554183 440:0.00072495395 599:0.0022026142 601:0.00071197579 615:0.00052648137 796:0.0013677421 797:0.0019823406 888:0.0012901955 912:0.00080363738 1249:0.00069384172 1356:0.00044667738 1453:0.00097583409 2066:0.00041362381 2099:0.00067277468 2291:0.00072771893 2343:0.00061736593 2894:0.00012882329 4159:0.00027895474 4252:0.00024816804 4668:0.0001566744 5194:9.1672184e-05 5312:0.00018615213 #
-566.53888571579159361135680228472 6:0.0061012879 7:0.0081517985 17:0.0063943076 24:0.0094825402 96:0.00084517273 487:0.00034083863 545:0.00091918174 732:0.00055230292 1374:0.00035485515 3532:8.7077606e-05 4724:2.0884765e-05 7040:9.1082375e-06 #
566.53888571579159361135680228472 18:0.021749511 283:0.0062527424 350:0.0076549812 508:0.0011545176 509:0.0011857208 1323:0.0012947193 1452:0.0014977525 3503:0.006011751 3504:0.00024963738 3505:0.00037445608 #
566.53888571579159361135680228472 18:0.021749511 72:0.0023691521 102:0.0068200324 154:0.0027673454 160:0.0086860526 367:0.0024183965 855:0.0015956238 943:0.0016537941 1393:0.0019344923 1533:0.000271611 3162:0.0044879434 #
566.53888571579159361135680228472 394:0.0044576922 463:0.0057069832 464:0.010258848 465:0.0073727644 2485:0.0029546393 2486:0.0010305863 2487:0.0020956874 #
-566.53888571579159361135680228472 37:0.0083792442 124:0.00035734026 550:0.0075062169 1367:0.0013056201 1602:0.00028902653 2149:0.0014606927 3049:0.00021578654 #
-566.53888571579159361135680228472 7:0.0081517985 82:0.0011894044 96:0.00084517273 156:0.00040224235 200:0.0052741929 229:0.00068918511 249:0.0098167723 387:0.0021137008 1035:0.0016824227 1116:0.0012662294 1127:0.000436776 1374:0.00035485515 2324:0.007692859 #
-566.53888571579159361135680228472 6:0.0061012879 17:0.0063943076 265:0.01007227 383:0.0036554183 448:0.0029682626 473:0.00035954753 587:0.00059375225 1110:0.00085925352 1380:0.00015395587 #
-566.53888571579159361135680228472 5:0.00692527 8:0.016384553 10:0.019789666 17:0.0063943076 18:0.021749511 25:0.033538625 26:0.012593169 29:0.0021243151 34:0.0054362128 54:0.01810213 84:0.0035845381 96:0.00084517273 103:0.0082521904 126:0.0059264963 135:0.0030232377 160:0.0086860526 201:0.014689588 254:0.0018404634 277:0.0059152646 283:0.0062527424 314:0.0012565809 442:0.0033286386 467:0.0049595432 476:0.0074809957 478:0.00026629126 564:0.00063812139 767:0.0016119012 770:0.0021074559 796:0.0013677421 831:0.0016546856 858:0.001150644 867:0.0019985817 928:0.0005964014 976:0.0020880043 977:0.00029903179 1078:0.00061786122 1222:0.0014015698 1474:0.0011167561 1478:0.0016951117 1523:0.0013860386 1530:0.00018950821 1577:0.0014915756 1614:0.001492832 1627:0.001823058 1629:0.0003601466 1694:0.00088837824 1751:0.00050240447 1821:0.00098080374 2034:0.00066569966 2035:8.8161076e-05 2525:0.00061076001 3823:0.00041032262 4225:0.00079515879 4277:0.00011212911 4428:0.0001800733 4893:3.6887919e-05 4985:0.00021353501 5269:0.00021607788 7729:4.8310401e-05 #
-566.53888571579159361135680228472 8:0.016384553 17:0.0063943076 18:0.021749511 20:0.0024113671 21:0.00046768715 24:0.0094825402 25:0.033538625 26:0.012593169 30:0.0022381698 42:0.006629345 43:0.010510835 45:0.0050908024 96:0.00084517273 195:0.0041628671 201:0.014689588 216:0.0010296942 219:0.00053018442 226:0.0011315821 249:0.0098167723 269:0.00059616903 306:0.0042380076 314:0.0012565809 317:0.003806636 345:0.0015957316 545:0.00091918174 564:0.00063812139 601:0.00071197579 602:0.00049373577 607:0.0027697606 709:0.0025812942 732:0.00055230292 766:0.0005987109 797:0.0019823406 858:0.001150644 886:0.0010059893 902:0.0015508183 930:0.00060398952 1214:0.0017381095 1373:0.0010658612 1375:0.00081776554 1455:0.00014574273 1648:0.00058650423 1795:0.00062436174 3032:0.00035434362 #
566.53888571579159361135680228472 6:0.0061012879 7:0.0081517985 8:0.016384553 10:0.019789666 17:0.0063943076 18:0.021749511 24:0.0094825402 25:0.033538625 28:0.0096869301 30:0.0022381698 37:0.0083792442 38:0.016767683 96:0.00084517273 103:0.0082521904 201:0.014689588 220:0.00321993 240:0.0029111626 241:0.0018736799 248:0.0044215857 307:0.0038748032 323:0.00041648315 362:0.0050598066 427:0.005176858 477:0.00063983357 568:0.0052596023 569:0.0018068004 586:0.0017376649 599:0.0022026142 732:0.00055230292 755:0.00054512697 788:0.0005010934 857:0.0011212346 1120:0.0014294485 1373:0.0010658612 1512:0.0016758844 1519:0.001040076 2606:0.00010188411 6025:0.00036461159 6173:0.00014950547 7196:0.00024399324 7218:5.2540261e-05 7219:0.00015762077 #
566.53888571579159361135680228472 7:0.0081517985 8:0.016384553 9:0.016393851 10:0.019789666 12:0.0088669201 15:0.0023581535 17:0.0063943076 18:0.021749511 24:0.0094825402 25:0.033538625 26:0.012593169 28:0.0096869301 30:0.0022381698 31:0.0062816199 32:0.0046225982 34:0.0054362128 38:0.016767683 40:0.019268874 43:0.010510835 44:0.013149623 51:0.0046684179 54:0.01810213 56:0.0037437617 63:0.00038362102 65:0.0026063072 71:0.0064679445 78:0.0030796931 80:0.0052598831 85:0.00088871631 92:0.0022823396 96:0.00084517273 103:0.0082521904 107:0.0059442255 121:0.0055785002 126:0.0059264963 137:0.0075839534 147:0.0022198537 149:0.0047317133 150:0.003141888 155:0.00098243845 158:0.0020485534 160:0.0086860526 164:0.0051268889 168:0.0011827883 170:0.0025355674 194:0.0080064787 195:0.0041628671 196:0.0060827904 200:0.0052741929 201:0.014689588 207:0.00053781416 216:0.0010296942 219:0.00053018442 223:0.0017740187 230:0.00034054011 249:0.0098167723 267:0.005499742 268:0.0027653328 269:0.00059616903 277:0.0059152646 283:0.0062527424 291:0.0027949237 294:0.003883918 306:0.0042380076 307:0.0038748032 317:0.003806636 318:0.0049058772 331:0.0015102972 345:0.0015957316 348:0.0031609824 356:0.00061876723 359:0.0033428811 366:0.0013072112 375:0.0055939667 377:0.0023753934 379:0.00031021005 386:0.001897959 389:0.0046635531 400:0.00039444939 410:0.002992959 412:0.00028985238 420:0.0087039359 427:0.005176858 437:0.00046671918 440:0.00072495395 442:0.0033286386 447:0.0018238428 451:0.0010630866 465:0.0073727644 467:0.0049595432 476:0.0074809957 491:0.0036881953 504:0.0026680927 510:0.0018483166 514:0.0021314137 523:0.0040119756 525:0.0045690723 537:0.0010823144 542:0.00629802 557:0.00082603097 599:0.0022026142 601:0.00071197579 607:0.0027697606 613:0.001811199 628:0.00062194944 635:0.0047766371 642:0.0012554848 652:0.0031660551 695:0.0012368526 758:0.00069067272 807:0.00095140835 863:0.0011985776 870:0.0016762251 873:0.0022509233 883:0.0019487372 888:0.0012901955 896:0.00096442283 902:0.0015508183 917:0.0026895772 945:0.00098692195 950:0.0017442683 952:0.003111905 960:0.0012817176 962:0.00045116624 1036:0.00093071925 1045:0.0064050201 1079:0.00059139414 1107:0.00050543569 1138:0.00044943756 1243:9.1672184e-05 1247:0.00028082859 1287:0.0015689215 1357:0.00090380141 1409:0.0014513195 1438:0.00031585796 1460:0.00093154138 1518:0.00124279 1543:0.00044126 1546:0.00088699488 1576:0.0037570475 1592:0.00011955204 1692:0.0017021784 1694:0.00088837824 1735:0.00066064345 1813:0.00021353501 1842:0.00082323467 2060:0.0014747492 2185:0.00047148482 2238:0.00023910408 2268:0.0003314651 2699:0.00065168418 2764:0.00063471828 2911:0.00020803115 2974:0.00049351208 2975:0.0008419372 3019:0.00024675604 3197:0.00055843295 3321:0.00049613562 3445:0.00026163459 3496:0.0031883763 3497:0.0014404792 3515:0.0022913062 3612:0.00020743272 3630:0.00041252482 3631:0.00024963738 3659:0.00035190847 3675:0.0003526443 3861:8.3212457e-05 3862:5.2540261e-05 3863:5.2540261e-05 3864:0.00020613339 3865:0.0001226888 3866:0.00010826594 3867:0.00016735162 3868:0.00028465877 3869:0.00011546691 3870:5.2540261e-05 3871:5.2540261e-05 3872:0.00012481271 3873:3.9131919e-05 3874:0.00013750826 3875:9.1672184e-05 3876:4.8310401e-05 3877:0.00026758361 3878:0.00020812057 3879:4.5836092e-05 #
566.53888571579159361135680228472 7:0.0081517985 8:0.016384553 10:0.019789666 15:0.0023581535 25:0.033538625 38:0.016767683 96:0.00084517273 121:0.0055785002 201:0.014689588 258:0.00076134305 272:0.0045888005 283:0.0062527424 299:0.0022997088 306:0.0042380076 362:0.0050598066 405:0.0016288254 427:0.005176858 457:0.003106012 467:0.0049595432 473:0.00035954753 545:0.00091918174 630:0.00075906527 765:0.00076288299 815:0.00042766618 887:0.0016442371 1032:0.0010034023 1036:0.00093071925 1233:0.00094565505 1458:0.00063451554 2026:0.00042479165 2561:0.0013580549 3144:0.00018688185 3796:0.0013356028 3902:0.00040079249 4695:0.00022918046 4696:9.6620803e-05 4956:0.0005478469 6214:0.00078490376 7060:0.00021359415 7506:0.00015762077 7507:5.2540261e-05 7508:4.8310401e-05 7509:5.2540261e-05 7510:5.2540261e-05 #
-566.53888571579159361135680228472 7:0.0081517985 8:0.016384553 9:0.016393851 10:0.019789666 12:0.0088669201 14:0.0094003771 16:0.003842247 17:0.0063943076 18:0.021749511 24:0.0094825402 25:0.033538625 26:0.012593169 28:0.0096869301 30:0.0022381698 32:0.0046225982 33:0.0037169838 34:0.0054362128 35:0.0074010426 37:0.0083792442 38:0.016767683 39:0.0020475839 40:0.019268874 42:0.006629345 43:0.010510835 44:0.013149623 49:0.001254169 51:0.0046684179 54:0.01810213 56:0.0037437617 58:0.00053228502 71:0.0064679445 72:0.0023691521 73:0.0071287141 77:0.0016064595 80:0.0052598831 82:0.0011894044 96:0.00084517273 101:0.00070652307 102:0.0068200324 103:0.0082521904 104:0.0007545937 105:0.016319668 109:0.0014971228 110:0.0014844281 114:0.0020065259 116:0.0058823037 120:0.0016063056 126:0.0059264963 130:0.0074554086 131:0.0044333953 133:0.0026865716 137:0.0075839534 143:0.0033244949 149:0.0047317133 150:0.003141888 159:0.0012432248 160:0.0086860526 164:0.0051268889 165:4.8310401e-05 166:0.00013224162 167:4.8310401e-05 173:0.00086431153 180:0.0043829381 187:0.0027644807 194:0.0080064787 195:0.0041628671 196:0.0060827904 197:0.0035134612 199:0.0018086466 200:0.0052741929 201:0.014689588 212:0.00053734303 217:0.0017320096 220:0.00321993 223:0.0017740187 226:0.0011315821 246:0.0012975793 248:0.0044215857 254:0.0018404634 260:0.0055479272 261:0.0061365482 281:0.0025997253 283:0.0062527424 286:0.0017849068 288:0.0029193591 289:0.0010806832 290:0.0011382346 291:0.0027949237 294:0.003883918 303:0.0008765987 311:0.00036657258 318:0.0049058772 331:0.0015102972 338:0.0021260618 348:0.0031609824 350:0.0076549812 352:0.0014391096 357:0.0017931662 359:0.0033428811 360:0.0023017763 362:0.0050598066 363:0.0021962137 364:0.0019953223 370:0.0030245529 375:0.0055939667 377:0.0023753934 381:0.0011792397 383:0.0036554183 384:0.0012415339 389:0.0046635531 401:0.0015340776 406:0.0021923161 410:0.002992959 413:0.00030183748 418:0.00048400968 420:0.0087039359 423:0.00096283178 441:0.0019715028 450:0.0023387719 456:0.0036858167 458:0.0020801506 476:0.0074809957 492:0.0010103247 519:0.00247108 543:0.0016184566 557:0.00082603097 586:0.0017376649 590:0.0010518433 597:0.0023130823 599:0.0022026142 601:0.00071197579 607:0.0027697606 614:0.00039033062 615:0.00052648137 633:0.0031463953 635:0.0047766371 688:0.0010800606 691:0.00022744409 695:0.0012368526 710:0.002401748 712:0.00098809949 718:0.00046186763 719:0.0034205627 724:0.0033083567 730:0.0013370522 732:0.00055230292 735:0.0015095737 743:0.0031776363 759:0.00054893974 795:0.00077435962 816:0.00038029332 828:0.0016849556 831:0.0016546856 842:0.0023054637 843:0.00087782199 844:0.0055944812 855:0.0015956238 928:0.0005964014 929:0.00037929276 948:0.00057055574 953:0.00053258252 1005:0.00098268921 1035:0.0016824227 1042:0.0023669985 1043:0.0012407072 1093:0.00086115411 1137:0.0010355302 1179:0.0005799387 1185:0.00060620863 1195:0.0015206819 1198:0.00020613339 1222:0.0014015698 1271:0.0016054438 1307:0.00046896783 1325:0.00023902851 1326:0.0014436146 1331:0.00022558312 1401:0.00048889976 1412:0.00026517207 1418:0.00093769003 1430:0.00021239583 1437:0.00078997726 1443:0.000763305 1502:0.00080966618 1523:0.0013860386 1524:0.00077961321 1528:0.00098604325 1535:0.00011546691 1536:8.3212457e-05 1554:0.0011177985 1591:0.00011546691 1718:0.00066186656 1724:0.00034640072 1728:0.00051170756 1739:0.0015318921 1740:0.00056103634 1762:0.0011160554 1773:0.00019660142 1810:0.00056349067 1919:0.00031051377 2077:0.00025504976 2109:0.0027620713 2131:0.00019925339 2235:0.00026724979 2352:0.00026890708 2435:0.0018314421 2498:0.00066803792 2693:0.0003314651 2728:0.00016102911 2753:0.00041801925 2788:0.00058080757 2793:0.00035677812 2888:0.00029392252 2991:5.8895253e-05 3217:9.1672184e-05 3318:7.270545e-05 3429:0.00053070288 3586:0.00036335443 3619:0.0001336249 3867:0.00016735162 3997:0.00019070879 4135:4.5836092e-05 4136:4.5836092e-05 4507:0.0001956596 4988:0.00050535524 5269:0.00021607788 5286:6.2406354e-05 5363:8.3212457e-05 5365:8.8161076e-05 5371:0.0001449312 5380:0.00031143153 5441:4.4080538e-05 5483:0.00011212911 5686:0.0017037175 5759:2.9878564e-05 5936:0.00010188411 5986:6.5316111e-05 6263:3.9850678e-05 6348:4.5836092e-05 6847:4.5836092e-05 6856:3.457212e-05 6943:3.3146509e-05 7281:0.00017451031 7283:0.00010804398 7434:0.00012481869 8045:8.8161076e-05 8087:0.00033284983 #
-566.53888571579159361135680228472 7:0.0081517985 8:0.016384553 9:0.016393851 10:0.019789666 12:0.0088669201 13:0.0021064437 14:0.0094003771 15:0.0023581535 17:0.0063943076 18:0.021749511 24:0.0094825402 25:0.033538625 26:0.012593169 27:0.001550884 28:0.0096869301 30:0.0022381698 33:0.0037169838 34:0.0054362128 36:0.0039932295 37:0.0083792442 38:0.016767683 39:0.0020475839 40:0.019268874 43:0.010510835 44:0.013149623 54:0.01810213 65:0.0026063072 71:0.0064679445 73:0.0071287141 78:0.0030796931 80:0.0052598831 83:0.0023650767 84:0.0035845381 89:0.0040338906 96:0.00084517273 103:0.0082521904 106:0.0017681972 107:0.0059442255 116:0.0058823037 121:0.0055785002 127:0.0013702284 137:0.0075839534 150:0.003141888 160:0.0086860526 164:0.0051268889 171:0.0011286456 180:0.0043829381 181:0.0014312123 194:0.0080064787 196:0.0060827904 197:0.0035134612 200:0.0052741929 201:0.014689588 208:0.0039724386 218:0.00058287493 223:0.0017740187 226:0.0011315821 229:0.00068918511 230:0.00034054011 277:0.0059152646 281:0.0025997253 301:0.00058006606 307:0.0038748032 323:0.00041648315 332:0.0024832881 335:0.0017145571 347:0.0005114947 348:0.0031609824 350:0.0076549812 356:0.00061876723 366:0.0013072112 370:0.0030245529 375:0.0055939667 383:0.0036554183 394:0.0044576922 408:0.00045275621 420:0.0087039359 427:0.005176858 442:0.0033286386 449:0.0058757663 459:0.0016814971 467:0.0049595432 476:0.0074809957 504:0.0026680927 524:0.0026481443 528:0.0021798695 535:0.0015148964 554:0.0017669322 586:0.0017376649 597:0.0023130823 598:0.001355767 599:0.0022026142 606:0.0010230113 607:0.0027697606 633:0.0031463953 652:0.0031660551 662:0.002239248 694:0.00075266272 711:0.0016288182 729:0.0009953283 767:0.0016119012 770:0.0021074559 798:0.00048272187 831:0.0016546856 854:0.0026787885 856:0.002201583 860:0.00039015131 873:0.0022509233 888:0.0012901955 894:0.0015756653 904:0.0010132007 929:0.00037929276 952:0.003111905 960:0.0012817176 1005:0.00098268921 1015:0.0021318535 1025:0.00080426852 1045:0.0064050201 1091:0.0012808595 1092:0.00036606001 1110:0.00085925352 1112:0.0011537983 1113:0.00090526324 1195:0.0015206819 1249:0.00069384172 1269:0.0018652147 1374:0.00035485515 1390:0.0014295859 1530:0.00018950821 1540:0.00018217841 1578:0.00058784505 1614:0.001492832 1629:0.0003601466 1844:0.00039965371 1916:0.00068230374 1926:0.00017625433 1946:0.00087535498 2123:0.00039537251 2235:0.00026724979 2524:0.0008070115 2699:0.00065168418 2716:0.00011739576 2992:0.00025427839 2993:0.00034902061 3032:0.00035434362 3765:0.00016642491 4050:4.2718828e-05 4250:0.00014939281 5286:6.2406354e-05 5359:0.00013224162 5418:7.3775838e-05 5541:0.00016642491 5663:7.2871364e-05 5693:0.00017632215 5869:4.8310401e-05 6705:9.1672184e-05 6706:0.0001449312 #
-566.53888571579159361135680228472 6:0.0061012879 8:0.016384553 9:0.016393851 10:0.019789666 12:0.0088669201 16:0.003842247 18:0.021749511 24:0.0094825402 25:0.033538625 28:0.0096869301 29:0.0021243151 30:0.0022381698 31:0.0062816199 37:0.0083792442 38:0.016767683 41:0.0037066876 42:0.006629345 43:0.010510835 44:0.013149623 54:0.01810213 56:0.0037437617 58:0.00053228502 65:0.0026063072 78:0.0030796931 83:0.0023650767 96:0.00084517273 104:0.0007545937 107:0.0059442255 114:0.0020065259 117:0.001006885 121:0.0055785002 122:0.00045517518 124:0.00035734026 126:0.0059264963 133:0.0026865716 135:0.0030232377 137:0.0075839534 143:0.0033244949 150:0.003141888 160:0.0086860526 173:0.00086431153 195:0.0041628671 196:0.0060827904 197:0.0035134612 200:0.0052741929 201:0.014689588 211:0.0033291113 217:0.0017320096 219:0.00053018442 220:0.00321993 241:0.0018736799 252:7.9701356e-05 260:0.0055479272 267:0.005499742 268:0.0027653328 271:0.0062686671 272:0.0045888005 280:0.00028812551 283:0.0062527424 314:0.0012565809 317:0.003806636 331:0.0015102972 342:0.0011984016 345:0.0015957316 348:0.0031609824 350:0.0076549812 357:0.0017931662 358:0.0010465623 362:0.0050598066 366:0.0013072112 369:0.00059754419 376:0.0006593095 377:0.0023753934 387:0.0021137008 390:0.0019806358 410:0.002992959 433:0.0014799988 442:0.0033286386 449:0.0058757663 455:0.003291514 456:0.0036858167 459:0.0016814971 476:0.0074809957 516:0.0039048493 523:0.0040119756 524:0.0026481443 535:0.0015148964 538:0.00058551348 550:0.0075062169 597:0.0023130823 604:0.00041526221 606:0.0010230113 607:0.0027697606 613:0.001811199 614:0.00039033062 615:0.00052648137 624:0.001195748 635:0.0047766371 645:0.0015571482 688:0.0010800606 705:0.0012942578 732:0.00055230292 770:0.0021074559 771:0.00019360252 817:0.0023328962 838:0.00012815649 842:0.0023054637 861:0.0020653247 885:0.00049633608 888:0.0012901955 950:0.0017442683 952:0.003111905 1013:0.00027454502 1019:0.00098692614 1083:0.00030468579 1093:0.00086115411 1110:0.00085925352 1112:0.0011537983 1127:0.000436776 1145:0.0008552699 1179:0.0005799387 1195:0.0015206819 1196:0.00042128874 1241:4.0665542e-05 1265:0.00050356728 1339:0.0018238428 1367:0.0013056201 1373:0.0010658612 1411:0.00074107462 1418:0.00093769003 1427:0.00030844111 1438:0.00031585796 1469:0.00013129524 1528:0.00098604325 1545:0.00010930705 1574:0.00023670334 1584:0.00079661806 1602:0.00028902653 1624:0.00023093382 1711:0.0014074573 1737:0.00068984943 1862:0.0020361268 1916:0.00068230374 2074:0.00014723814 2149:0.0014606927 2230:0.00052549253 2322:0.00025224363 2343:0.00061736593 2443:0.00049981743 2534:0.00074060366 2560:0.00076442288 2719:0.000500264 2978:0.00053364632 2991:5.8895253e-05 3121:0.00044317648 3249:0.00010293441 3379:8.8763758e-05 3614:0.00046431588 3743:0.000158924 3864:0.00020613339 3867:0.00016735162 4231:8.5437656e-05 4250:0.00014939281 4306:0.0002453776 4635:0.00028251862 4936:0.00010575259 4962:0.00010470618 5415:3.3961373e-05 5839:0.00019244484 6848:3.3146509e-05 7651:3.9131919e-05 7761:7.2871364e-05 #
566.53888571579159361135680228472 420:0.0087039359 463:0.0057069832 550:0.0075062169 555:0.00019288457 662:0.002239248 972:0.0012282946 1523:0.0013860386 1829:0.00045826123 #
566.53888571579159361135680228472 420:0.0087039359 448:0.0029682626 520:0.00017632215 750:0.0011411126 827:0.0021927487 947:0.0027179529 1011:0.00092674483 1044:0.0010247302 1614:0.001492832 2589:0.00075370038 #
566.53888571579159361135680228472 6:0.0061012879 8:0.016384553 250:0.0022918163 292:0.0026715735 730:0.0013370522 1128:0.00066120812 3748:0.00052876293 4642:0.00030325877 4643:0.0001449312 #
-566.53888571579159361135680228472 82:0.0011894044 96:0.00084517273 156:0.00040224235 249:0.0098167723 277:0.0059152646 394:0.0044576922 778:0.00068474672 1127:0.000436776 1374:0.00035485515 6590:4.5836092e-05 #
-566.53888571579159361135680228472 7:0.0081517985 249:0.0098167723 1346:0.0012489404 1374:0.00035485515 3249:0.00010293441 3532:8.7077606e-05 7040:9.1082375e-06 #
-566.53888571579159361135680228472 8:0.016384553 10:0.019789666 18:0.021749511 25:0.033538625 51:0.0046684179 54:0.01810213 66:0.0014751933 73:0.0071287141 83:0.0023650767 96:0.00084517273 114:0.0020065259 126:0.0059264963 127:0.0013702284 136:0.00090351363 142:0.006261297 146:0.0027534699 158:0.0020485534 160:0.0086860526 196:0.0060827904 267:0.005499742 272:0.0045888005 348:0.0031609824 387:0.0021137008 394:0.0044576922 459:0.0016814971 464:0.010258848 599:0.0022026142 625:0.00090786989 651:0.00038650964 703:0.0026281516 770:0.0021074559 811:0.0016244124 1044:0.0010247302 1074:0.00048641625 1471:0.0027816261 1488:0.0016555275 1571:0.0016111674 2517:0.00089177443 2546:0.00059375225 2721:6.101e-05 4972:4.4080538e-05 5733:0.00036410714 6629:4.5836092e-05 7642:7.8263838e-05 7918:0.00013224162 8109:0.00013750826 #
-418.50018721836863733187783509493 3:0.0036967595 8:0.016384553 9:0.016393851 10:0.019789666 11:0.0071980599 17:0.0063943076 18:0.021749511 24:0.0094825402 25:0.033538625 26:0.012593169 28:0.0096869301 30:0.0022381698 32:0.0046225982 38:0.016767683 39:0.0020475839 40:0.019268874 44:0.013149623 47:0.00044218585 49:0.001254169 51:0.0046684179 54:0.01810213 56:0.0037437617 72:0.0023691521 83:0.0023650767 84:0.0035845381 85:0.00088871631 96:0.00084517273 101:0.00070652307 116:0.0058823037 126:0.0059264963 146:0.0027534699 148:0.0033664149 174:0.00031949638 187:0.0027644807 188:0.0027945316 194:0.0080064787 196:0.0060827904 200:0.0052741929 201:0.014689588 212:0.00053734303 216:0.0010296942 217:0.0017320096 218:0.00058287493 220:0.00321993 226:0.0011315821 243:0.00034561506 249:0.0098167723 250:0.0022918163 262:0.00080826605 267:0.005499742 281:0.0025997253 294:0.003883918 310:0.0035155544 312:0.00021361644 322:0.00034457553 350:0.0076549812 366:0.0013072112 381:0.0011792397 382:0.00061076001 420:0.0087039359 442:0.0033286386 456:0.0036858167 459:0.0016814971 476:0.0074809957 519:0.00247108 535:0.0015148964 542:0.00629802 556:0.0032876073 561:0.00044851642 568:0.0052596023 582:0.0015879904 584:0.0015027506 587:0.00059375225 599:0.0022026142 612:0.00017838263 628:0.00062194944 638:0.00092057971 648:0.0012280481 649:0.00086981955 652:0.0031660551 696:0.00062701572 707:0.0015271738 724:0.0033083567 729:0.0009953283 730:0.0013370522 766:0.0005987109 797:0.0019823406 803:0.00094984402 811:0.0016244124 837:0.00042040224 858:0.001150644 888:0.0012901955 894:0.0015756653 904:0.0010132007 986:0.0018303001 1015:0.0021318535 1042:0.0023669985 1045:0.0064050201 1058:0.0019146025 1113:0.00090526324 1179:0.0005799387 1332:0.00067078409 1375:0.00081776554 1409:0.0014513195 1443:0.000763305 1461:0.00084322499 1561:0.0014406275 1577:0.0014915756 1609:0.00046201985 1725:0.0012254074 1728:0.00051170756 1739:0.0015318921 1765:0.00075073901 1895:0.00042178354 1960:0.00078646105 2071:0.00043045112 2109:0.0027620713 2248:0.00061736593 2430:0.0003457212 2560:0.00076442288 2620:0.00060846505 2699:0.00065168418 2835:0.00048734812 3274:0.00018085056 3567:0.00031017681 4081:0.00042301035 4743:0.0002453776 5970:8.9194531e-05 7427:6.9804119e-05 #
566.53888571579159361135680228472 7:0.0081517985 8:0.016384553 10:0.019789666 14:0.0094003771 17:0.0063943076 26:0.012593169 42:0.006629345 54:0.01810213 59:0.0035129234 87:0.0033595709 96:0.00084517273 143:0.0033244949 387:0.0021137008 449:0.0058757663 452:0.0054846518 524:0.0026481443 544:0.0025355674 625:0.00090786989 707:0.0015271738 724:0.0033083567 1091:0.0012808595 1580:0.0016005308 1757:0.00066131854 2416:0.00040412985 2645:0.00039775812 3671:0.00039704426 5547:0.00019324161 7050:9.1672184e-05 7051:5.2540261e-05 7052:4.8310401e-05 7053:4.8310401e-05 7054:4.4080538e-05 7055:5.2540261e-05 #
566.53888571579159361135680228472 6:0.0061012879 7:0.0081517985 8:0.016384553 9:0.016393851 10:0.019789666 12:0.0088669201 16:0.003842247 17:0.0063943076 18:0.021749511 24:0.0094825402 25:0.033538625 26:0.012593169 28:0.0096869301 30:0.0022381698 32:0.0046225982 34:0.0054362128 35:0.0074010426 36:0.0039932295 38:0.016767683 40:0.019268874 42:0.006629345 43:0.010510835 44:0.013149623 51:0.0046684179 54:0.01810213 56:0.0037437617 59:0.0035129234 67:0.00065666653 71:0.0064679445 73:0.0071287141 77:0.0016064595 78:0.0030796931 80:0.0052598831 82:0.0011894044 83:0.0023650767 84:0.0035845381 89:0.0040338906 96:0.00084517273 103:0.0082521904 104:0.0007545937 107:0.0059442255 114:0.0020065259 116:0.0058823037 120:0.0016063056 126:0.0059264963 127:0.0013702284 137:0.0075839534 149:0.0047317133 159:0.0012432248 160:0.0086860526 161:0.00033928521 164:0.0051268889 171:0.0011286456 175:0.0010596123 180:0.0043829381 181:0.0014312123 194:0.0080064787 195:0.0041628671 196:0.0060827904 199:0.0018086466 201:0.014689588 210:0.0021755712 217:0.0017320096 223:0.0017740187 243:0.00034561506 246:0.0012975793 248:0.0044215857 249:0.0098167723 254:0.0018404634 255:0.0022818455 260:0.0055479272 265:0.01007227 271:0.0062686671 272:0.0045888005 281:0.0025997253 283:0.0062527424 291:0.0027949237 292:0.0026715735 294:0.003883918 309:0.00039338437 313:0.0029094089 317:0.003806636 330:0.002108996 339:0.00018217841 342:0.0011984016 343:0.00139645 345:0.0015957316 348:0.0031609824 350:0.0076549812 352:0.0014391096 360:0.0023017763 362:0.0050598066 370:0.0030245529 374:0.00019244484 377:0.0023753934 383:0.0036554183 385:0.00059693941 386:0.001897959 410:0.002992959 418:0.00048400968 441:0.0019715028 442:0.0033286386 449:0.0058757663 458:0.0020801506 494:0.0018454747 516:0.0039048493 524:0.0026481443 528:0.0021798695 541:0.0015039524 549:0.00035190847 550:0.0075062169 554:0.0017669322 597:0.0023130823 606:0.0010230113 607:0.0027697606 608:0.0036667094 646:0.0012868942 652:0.0031660551 695:0.0012368526 709:0.0025812942 712:0.00098809949 730:0.0013370522 745:0.0013221171 747:0.0005595049 753:0.00026941989 770:0.0021074559 804:0.0019103683 813:0.00050299463 824:0.00029670651 831:0.0016546856 842:0.0023054637 856:0.002201583 868:0.0016905296 873:0.0022509233 883:0.0019487372 896:0.00096442283 901:0.00049158302 904:0.0010132007 933:0.00040327304 972:0.0012282946 1002:0.00060724962 1058:0.0019146025 1078:0.00061786122 1087:0.0022511878 1091:0.0012808595 1095:0.001849775 1112:0.0011537983 1116:0.0012662294 1195:0.0015206819 1214:0.0017381095 1217:0.000938098 1249:0.00069384172 1269:0.0018652147 1271:0.0016054438 1303:0.00051388663 1354:0.0012473252 1411:0.00074107462 1528:0.00098604325 1538:0.00032094002 1560:0.00020376823 1576:0.0037570475 1578:0.00058784505 1694:0.00088837824 1704:0.0015537484 1734:0.00059020671 1742:0.0010795256 1762:0.0011160554 1791:0.00023028179 1801:0.00051601569 1927:0.00096031849 1946:0.00087535498 1997:0.00060684519 2039:0.00020803115 2073:0.00044218585 2093:0.000907977 2110:0.0015946297 2190:0.00031203177 2295:0.00014950547 2306:0.00016448699 2321:0.00095872825 2438:0.00012199662 2461:0.00012815649 2500:0.00085965649 2576:9.6620803e-05 2788:0.00058080757 2840:0.00048873451 2902:9.1672184e-05 3013:0.000129711 3018:0.00048987084 3133:0.0016819367 3134:0.00017129554 3139:7.9701356e-05 3141:9.1672184e-05 3142:0.00043479359 3146:0.00083753024 3313:4.2718828e-05 3314:0.00016980685 3315:7.8263838e-05 3316:0.00012796672 3317:5.2540261e-05 3318:7.270545e-05 3319:4.5836092e-05 3320:0.0001449312 3321:0.00049613562 3322:5.2540261e-05 3323:0.00010508052 3324:0.00016448699 3325:5.2540261e-05 3326:0.0001734999 3327:7.2029317e-05 3328:4.8310401e-05 3329:5.2540261e-05 3330:0.00023384357 3331:0.00023981376 3332:9.1672184e-05 3333:4.4080538e-05 3334:4.5836092e-05 3335:8.5284591e-05 3336:4.4080538e-05 3337:0.00013224162 #
566.53888571579159361135680228472 3:0.0036967595 8:0.016384553 9:0.016393851 10:0.019789666 12:0.0088669201 16:0.003842247 17:0.0063943076 18:0.021749511 24:0.0094825402 25:0.033538625 26:0.012593169 28:0.0096869301 29:0.0021243151 30:0.0022381698 32:0.0046225982 34:0.0054362128 35:0.0074010426 37:0.0083792442 38:0.016767683 40:0.019268874 43:0.010510835 44:0.013149623 51:0.0046684179 54:0.01810213 57:0.0026196798 59:0.0035129234 73:0.0071287141 87:0.0033595709 89:0.0040338906 96:0.00084517273 105:0.016319668 107:0.0059442255 121:0.0055785002 126:0.0059264963 137:0.0075839534 149:0.0047317133 154:0.0027673454 158:0.0020485534 180:0.0043829381 194:0.0080064787 195:0.0041628671 197:0.0035134612 199:0.0018086466 200:0.0052741929 201:0.014689588 209:0.00013750826 215:0.0012909906 250:0.0022918163 260:0.0055479272 261:0.0061365482 267:0.005499742 271:0.0062686671 294:0.003883918 310:0.0035155544 313:0.0029094089 317:0.003806636 319:0.0020132933 321:0.0015024155 327:0.0027215697 332:0.0024832881 348:0.0031609824 359:0.0033428811 360:0.0023017763 362:0.0050598066 369:0.00059754419 370:0.0030245529 442:0.0033286386 443:0.00083493383 444:0.00095009716 447:0.0018238428 449:0.0058757663 454:0.0006441162 458:0.0020801506 476:0.0074809957 491:0.0036881953 519:0.00247108 550:0.0075062169 607:0.0027697606 644:0.0017325482 645:0.0015571482 703:0.0026281516 711:0.0016288182 766:0.0005987109 770:0.0021074559 797:0.0019823406 819:0.00023093382 831:0.0016546856 842:0.0023054637 881:0.0013157688 902:0.0015508183 903:0.00099199638 909:0.0017584203 996:0.0025563736 1036:0.00093071925 1087:0.0022511878 1137:0.0010355302 1197:0.00070494728 1397:0.0010836944 1478:0.0016951117 1513:0.0032971178 1517:0.00072737498 1577:0.0014915756 1580:0.0016005308 1620:0.00050543569 1683:0.0017389104 1725:0.0012254074 1728:0.00051170756 1833:0.00038488969 1842:0.00082323467 1913:0.00029148546 1928:0.00062042009 2052:0.00055746123 2110:0.0015946297 2163:0.00012815649 2453:0.00039238873 2482:0.00020743272 2515:0.00030325877 2561:0.0013580549 2784:0.0008741346 2803:0.00041181105 3277:0.00041589185 3881:0.00035250865 4061:0.00021086534 4507:0.0001956596 4539:0.00054616068 4668:0.0001566744 4766:0.00020332771 4767:0.0012481869 4774:0.00016642491 4778:0.0010819639 5372:0.0010392022 5373:0.00029903179 5374:0.00020803115 5375:0.00073337747 5377:0.00020332771 5378:0.00020332771 5382:8.8161076e-05 5383:0.0002204027 5385:0.00017632215 5386:0.00020803115 5387:0.00028465877 5597:0.00024963738 6215:0.00034640072 6244:0.00059586915 6245:0.00013750826 6246:0.00013750826 6247:9.6620803e-05 6248:0.0001449312 6249:4.2718828e-05 6250:4.1606228e-05 6251:4.8310401e-05 6252:0.00059586915 6253:0.00012481869 #
-566.53888571579159361135680228472 8:0.016384553 9:0.016393851 18:0.021749511 24:0.0094825402 26:0.012593169 30:0.0022381698 39:0.0020475839 40:0.019268874 44:0.013149623 54:0.01810213 80:0.0052598831 84:0.0035845381 87:0.0033595709 96:0.00084517273 103:0.0082521904 105:0.016319668 137:0.0075839534 164:0.0051268889 201:0.014689588 210:0.0021755712 212:0.00053734303 230:0.00034054011 236:0.0012125093 249:0.0098167723 281:0.0025997253 283:0.0062527424 332:0.0024832881 352:0.0014391096 355:0.00057447283 375:0.0055939667 389:0.0046635531 394:0.0044576922 425:0.00010930705 430:0.0012855664 442:0.0033286386 458:0.0020801506 504:0.0026680927 526:0.0020059568 586:0.0017376649 607:0.0027697606 612:0.00017838263 706:0.00049599819 722:0.0023503609 755:0.00054512697 763:0.0027768339 780:0.0023920937 797:0.0019823406 855:0.0015956238 901:0.00049158302 1039:0.0019428403 1092:0.00036606001 1214:0.0017381095 1230:0.00035434362 1249:0.00069384172 1300:0.0012169301 1609:0.00046201985 1686:0.00070437457 1927:0.00096031849 1931:0.00038842132 2010:0.00057734334 2094:0.00028082859 2123:0.00039537251 2467:4.4080538e-05 3147:0.00013703643 3466:4.0665542e-05 5400:0.00012199662 6298:7.9701356e-05 6367:3.9850678e-05 #
-566.53888571579159361135680228472 7:0.0081517985 8:0.016384553 10:0.019789666 14:0.0094003771 15:0.0023581535 16:0.003842247 17:0.0063943076 18:0.021749511 24:0.0094825402 25:0.033538625 28:0.0096869301 30:0.0022381698 32:0.0046225982 34:0.0054362128 35:0.0074010426 38:0.016767683 39:0.0020475839 40:0.019268874 41:0.0037066876 42:0.006629345 43:0.010510835 44:0.013149623 49:0.001254169 51:0.0046684179 54:0.01810213 56:0.0037437617 67:0.00065666653 69:0.0006119106 71:0.0064679445 72:0.0023691521 73:0.0071287141 77:0.0016064595 78:0.0030796931 80:0.0052598831 81:0.00058382156 83:0.0023650767 85:0.00088871631 87:0.0033595709 92:0.0022823396 96:0.00084517273 103:0.0082521904 105:0.016319668 116:0.0058823037 119:0.0016499133 126:0.0059264963 131:0.0044333953 132:0.0012673686 136:0.00090351363 137:0.0075839534 149:0.0047317133 150:0.003141888 159:0.0012432248 160:0.0086860526 173:0.00086431153 175:0.0010596123 180:0.0043829381 190:0.0045617339 194:0.0080064787 196:0.0060827904 197:0.0035134612 198:0.000919807 199:0.0018086466 201:0.014689588 211:0.0033291113 218:0.00058287493 219:0.00053018442 223:0.0017740187 226:0.0011315821 228:0.00037547309 229:0.00068918511 230:0.00034054011 244:0.0014454094 246:0.0012975793 254:0.0018404634 260:0.0055479272 267:0.005499742 268:0.0027653328 269:0.00059616903 291:0.0027949237 294:0.003883918 314:0.0012565809 317:0.003806636 318:0.0049058772 327:0.0027215697 330:0.002108996 331:0.0015102972 335:0.0017145571 345:0.0015957316 348:0.0031609824 359:0.0033428811 363:0.0021962137 364:0.0019953223 369:0.00059754419 370:0.0030245529 375:0.0055939667 377:0.0023753934 383:0.0036554183 386:0.001897959 391:0.0010918716 395:0.0030973493 398:0.00034323495 413:0.00030183748 420:0.0087039359 427:0.005176858 430:0.0012855664 441:0.0019715028 442:0.0033286386 456:0.0036858167 458:0.0020801506 459:0.0016814971 463:0.0057069832 464:0.010258848 467:0.0049595432 491:0.0036881953 516:0.0039048493 523:0.0040119756 531:0.00070868724 550:0.0075062169 554:0.0017669322 562:0.0013922248 568:0.0052596023 597:0.0023130823 600:8.3212457e-05 601:0.00071197579 606:0.0010230113 607:0.0027697606 614:0.00039033062 615:0.00052648137 643:0.00062464474 662:0.002239248 687:0.00088510942 705:0.0012942578 709:0.0025812942 717:0.0011827883 732:0.00055230292 745:0.0013221171 756:0.00010477291 767:0.0016119012 780:0.0023920937 797:0.0019823406 823:0.00045517518 827:0.0021927487 831:0.0016546856 837:0.00042040224 842:0.0023054637 861:0.0020653247 881:0.0013157688 888:0.0012901955 902:0.0015508183 907:0.0017951446 912:0.00080363738 928:0.0005964014 946:0.00030423253 958:0.00039921375 959:0.00033571152 960:0.0012817176 967:0.0010008361 971:0.00091652246 972:0.0012282946 982:0.00027296791 1011:0.00092674483 1032:0.0010034023 1042:0.0023669985 1044:0.0010247302 1058:0.0019146025 1076:0.00023981376 1107:0.00050543569 1113:0.00090526324 1134:0.0015072133 1137:0.0010355302 1179:0.0005799387 1185:0.00060620863 1188:0.001090288 1195:0.0015206819 1227:0.00082130806 1248:0.00087223045 1249:0.00069384172 1263:0.001516912 1267:0.00038392266 1304:0.00038141757 1373:0.0010658612 1409:0.0014513195 1411:0.00074107462 1428:0.00011212911 1430:0.00021239583 1471:0.0027816261 1472:0.00078477396 1478:0.0016951117 1523:0.0013860386 1525:0.00032708643 1528:0.00098604325 1543:0.00044126 1546:0.00088699488 1554:0.0011177985 1559:0.00040327304 1571:0.0016111674 1623:0.00037012933 1653:0.0021544911 1737:0.00068984943 1768:0.0008236221 1821:0.00098080374 1829:0.00045826123 1958:0.0012903413 1959:0.00072374276 1983:0.00050419697 2084:0.0010981801 2111:0.00080826832 2125:0.00019040664 2162:0.00046056358 2260:0.0023852577 2302:0.00072336086 2477:0.00013158959 2533:0.00015601589 2788:0.00058080757 2793:0.00035677812 2920:0.00012337643 2999:0.00033974348 3149:7.4752737e-05 3185:0.00010188411 3449:5.3055381e-05 3661:3.199168e-05 3674:0.00023910408 3729:4.5836092e-05 3743:0.000158924 3900:0.0001800733 3902:0.00040079249 4257:0.00016703113 4406:8.8161076e-05 4564:0.00024399324 4635:0.00028251862 4657:4.2718828e-05 4894:4.5836092e-05 5269:0.00021607788 5271:0.00014405863 5277:0.00019323493 5415:3.3961373e-05 5714:8.8161076e-05 5725:4.1606228e-05 6474:4.5836092e-05 6825:4.8310401e-05 7278:0.00010575259 #
-566.53888571579159361135680228472 3:0.0036967595 7:0.0081517985 8:0.016384553 9:0.016393851 10:0.019789666 12:0.0088669201 16:0.003842247 17:0.0063943076 18:0.021749511 24:0.0094825402 25:0.033538625 26:0.012593169 28:0.0096869301 30:0.0022381698 31:0.0062816199 34:0.0054362128 35:0.0074010426 37:0.0083792442 38:0.016767683 39:0.0020475839 40:0.019268874 41:0.0037066876 42:0.006629345 43:0.010510835 44:0.013149623 46:0.0021581934 51:0.0046684179 54:0.01810213 56:0.0037437617 57:0.0026196798 59:0.0035129234 73:0.0071287141 82:0.0011894044 85:0.00088871631 89:0.0040338906 92:0.0022823396 96:0.00084517273 101:0.00070652307 103:0.0082521904 104:0.0007545937 105:0.016319668 107:0.0059442255 116:0.0058823037 120:0.0016063056 121:0.0055785002 123:7.2871364e-05 124:0.00035734026 126:0.0059264963 128:0.0009960637 136:0.00090351363 137:0.0075839534 143:0.0033244949 149:0.0047317133 150:0.003141888 156:0.00040224235 160:0.0086860526 164:0.0051268889 171:0.0011286456 180:0.0043829381 194:0.0080064787 195:0.0041628671 196:0.0060827904 197:0.0035134612 201:0.014689588 212:0.00053734303 218:0.00058287493 220:0.00321993 223:0.0017740187 226:0.0011315821 236:0.0012125093 248:0.0044215857 260:0.0055479272 262:0.00080826605 267:0.005499742 271:0.0062686671 280:0.00028812551 283:0.0062527424 295:0.00023028179 299:0.0022997088 301:0.00058006606 317:0.003806636 334:0.00089903956 335:0.0017145571 343:0.00139645 348:0.0031609824 352:0.0014391096 358:0.0010465623 359:0.0033428811 364:0.0019953223 370:0.0030245529 374:0.00019244484 383:0.0036554183 387:0.0021137008 389:0.0046635531 394:0.0044576922 410:0.002992959 411:0.00021714703 413:0.00030183748 423:0.00096283178 430:0.0012855664 431:0.00025821541 442:0.0033286386 448:0.0029682626 449:0.0058757663 452:0.0054846518 456:0.0036858167 457:0.003106012 459:0.0016814971 464:0.010258848 465:0.0073727644 490:0.0010422411 491:0.0036881953 494:0.0018454747 506:0.0003601466 519:0.00247108 524:0.0026481443 528:0.0021798695 544:0.0025355674 545:0.00091918174 586:0.0017376649 601:0.00071197579 607:0.0027697606 619:0.00030833198 635:0.0047766371 646:0.0012868942 694:0.00075266272 697:0.00062025746 710:0.002401748 720:0.0008045705 729:0.0009953283 730:0.0013370522 735:0.0015095737 753:0.00026941989 759:0.00054893974 760:0.00034699979 770:0.0021074559 790:0.00028200692 797:0.0019823406 798:0.00048272187 803:0.00094984402 828:0.0016849556 831:0.0016546856 836:0.00014950547 844:0.0055944812 854:0.0026787885 856:0.002201583 857:0.0011212346 870:0.0016762251 883:0.0019487372 888:0.0012901955 899:0.00033740053 902:0.0015508183 903:0.00099199638 907:0.0017951446 914:0.0003963674 934:0.0014589814 946:0.00030423253 947:0.0027179529 949:0.0016501968 952:0.003111905 953:0.00053258252 954:0.0014399011 958:0.00039921375 962:0.00045116624 963:0.00053034414 967:0.0010008361 1015:0.0021318535 1027:0.00098614232 1054:0.00038029332 1083:0.00030468579 1093:0.00086115411 1094:0.00020941236 1116:0.0012662294 1127:0.000436776 1164:0.00024531482 1195:0.0015206819 1239:0.00022425821 1249:0.00069384172 1279:0.00016266217 1281:0.00022744409 1288:0.00086250127 1356:0.00044667738 1373:0.0010658612 1427:0.00030844111 1437:0.00078997726 1504:0.00061130471 1506:3.9850678e-05 1507:0.0006789224 1528:0.00098604325 1546:0.00088699488 1548:0.00092632434 1569:0.00027657696 1577:0.0014915756 1609:0.00046201985 1611:0.0010305863 1622:0.0012659539 1737:0.00068984943 1740:0.00056103634 1750:0.0029807959 1751:0.00050240447 1757:0.00066131854 1773:0.00019660142 1809:0.00012199662 1844:0.00039965371 1863:0.0012158417 1871:0.00039830952 1946:0.00087535498 2016:0.00054749893 2067:0.00012408402 2096:7.6977936e-05 2185:0.00047148482 2303:0.00038296779 2315:0.00042077061 2347:0.00063376362 2440:0.00029510335 2462:0.00076514931 2466:0.00071777002 2483:0.00045116624 2546:0.00059375225 2565:4.1606228e-05 2634:0.0001156666 2768:0.00034113837 2843:0.00019195008 2906:4.4080538e-05 2987:5.7335074e-05 3043:0.00018443959 3049:0.00021578654 3113:8.3212457e-05 3331:0.00023981376 3359:0.00063616631 3450:0.00029607659 3457:0.00023670334 3492:0.00011516329 3614:0.00046431588 3658:4.8310401e-05 3900:0.0001800733 3937:0.00060398952 4137:9.3609531e-05 4257:0.00016703113 4422:0.00027895474 4526:8.8161076e-05 4533:0.00024399324 4579:0.00018950821 4635:0.00028251862 4777:0.00033199126 4833:8.3212457e-05 5446:8.3212457e-05 5483:0.00011212911 5524:4.4080538e-05 5623:3.6887919e-05 5641:0.00012815649 5642:8.8161076e-05 5819:8.5437656e-05 5970:8.9194531e-05 6010:4.4080538e-05 6092:4.8310401e-05 6496:0.00011372205 6906:4.0665542e-05 6932:3.6887919e-05 #
566.53888571579159361135680228472 6:0.0061012879 7:0.0081517985 8:0.016384553 10:0.019789666 17:0.0063943076 24:0.0094825402 25:0.033538625 26:0.012593169 31:0.0062816199 96:0.00084517273 107:0.0059442255 201:0.014689588 240:0.0029111626 241:0.0018736799 476:0.0074809957 917:0.0026895772 1017:0.00084322499 1091:0.0012808595 1298:0.00063061423 1416:0.0010921112 1518:0.00124279 1726:0.0005478469 1862:0.0020361268 2842:0.0001956596 3648:0.00034116613 5178:0.00018688185 6483:0.00022918046 6484:0.00011212911 6485:0.00013224162 #
-211.62711645811214111745357513428 3:0.0036967595 8:0.016384553 10:0.019789666 11:0.0071980599 17:0.0063943076 18:0.021749511 24:0.0094825402 25:0.033538625 28:0.0096869301 30:0.0022381698 32:0.0046225982 34:0.0054362128 35:0.0074010426 38:0.016767683 40:0.019268874 43:0.010510835 44:0.013149623 48:0.0015171721 49:0.001254169 51:0.0046684179 54:0.01810213 56:0.0037437617 71:0.0064679445 72:0.0023691521 73:0.0071287141 78:0.0030796931 80:0.0052598831 82:0.0011894044 86:0.00015695479 96:0.00084517273 102:0.0068200324 105:0.016319668 124:0.00035734026 125:0.00067901798 126:0.0059264963 127:0.0013702284 131:0.0044333953 136:0.00090351363 137:0.0075839534 145:0.0011955893 146:0.0027534699 148:0.0033664149 149:0.0047317133 158:0.0020485534 160:0.0086860526 164:0.0051268889 175:0.0010596123 176:0.00057865371 179:0.0015658592 180:0.0043829381 194:0.0080064787 201:0.014689588 207:0.00053781416 217:0.0017320096 219:0.00053018442 220:0.00321993 267:0.005499742 269:0.00059616903 272:0.0045888005 292:0.0026715735 294:0.003883918 299:0.0022997088 301:0.00058006606 303:0.0008765987 313:0.0029094089 317:0.003806636 319:0.0020132933 322:0.00034457553 330:0.002108996 345:0.0015957316 348:0.0031609824 350:0.0076549812 359:0.0033428811 375:0.0055939667 377:0.0023753934 381:0.0011792397 395:0.0030973493 396:3.8488968e-05 410:0.002992959 423:0.00096283178 424:0.0011148122 427:0.005176858 431:0.00025821541 442:0.0033286386 474:0.00054013572 481:0.00019378356 504:0.0026680927 519:0.00247108 525:0.0045690723 534:0.0012822894 550:0.0075062169 562:0.0013922248 645:0.0015571482 655:0.00036606001 656:0.00060792087 710:0.002401748 711:0.0016288182 713:0.0005129741 719:0.0034205627 729:0.0009953283 760:0.00034699979 770:0.0021074559 821:0.00025267762 829:4.8310401e-05 834:0.001354482 856:0.002201583 864:0.0001377747 885:0.00049633608 928:0.0005964014 967:0.0010008361 1013:0.00027454502 1015:0.0021318535 1027:0.00098614232 1035:0.0016824227 1037:0.00087460934 1077:0.0021132559 1101:0.0012506599 1113:0.00090526324 1116:0.0012662294 1197:0.00070494728 1249:0.00069384172 1262:0.0007344152 1297:9.2016599e-05 1326:0.0014436146 1365:0.00081460527 1409:0.0014513195 1434:0.00063339807 1453:0.00097583409 1469:0.00013129524 1475:0.0007854274 1571:0.0016111674 1597:0.00012199662 1609:0.00046201985 1621:0.00026973319 1740:0.00056103634 1795:0.00062436174 1808:0.00013584549 1849:0.00041279022 1852:3.9850678e-05 1895:0.00042178354 1902:0.00063569599 2004:0.0011679273 2041:8.1331083e-05 2116:0.00024934573 2125:0.00019040664 2136:0.00061811547 2363:0.00079583068 2418:0.00027165373 2419:0.00080216059 2422:0.0011867719 2437:0.00019887906 2453:0.00039238873 2457:0.00066064345 2699:0.00065168418 2832:0.00014950547 2840:0.00048873451 2960:7.2871364e-05 3049:0.00021578654 3175:0.00010470618 3274:0.00018085056 3349:0.00044536841 3462:0.00044851642 3536:0.00018953675 3610:0.00022934029 3614:0.00046431588 3624:7.9701356e-05 3702:0.0015314916 3725:4.4080538e-05 3867:0.00016735162 3964:0.00013258604 4109:4.2718828e-05 4203:0.00063612254 4422:0.00027895474 4436:0.00014214098 4485:0.0002973151 4489:0.00010804398 4493:0.00021842225 4668:0.0001566744 5324:3.0505e-05 5432:0.0001271392 5482:8.5437656e-05 5622:3.457212e-05 5650:3.6887919e-05 5708:4.4080538e-05 5759:2.9878564e-05 5868:4.8310401e-05 5970:8.9194531e-05 6044:7.6977936e-05 7007:0.00010021868 7524:3.3677486e-05 #
566.53888571579159361135680228472 29:0.0021243151 130:0.0074554086 254:0.0018404634 383:0.0036554183 476:0.0074809957 516:0.0039048493 607:0.0027697606 1263:0.001516912 1326:0.0014436146 1519:0.001040076 3775:0.00026942277 5686:0.0017037175 #
566.53888571579159361135680228472 129:0.00084910949 154:0.0027673454 164:0.0051268889 171:0.0011286456 249:0.0098167723 1576:0.0037570475 2219:0.0019645551 3695:0.0019957279 #
566.53888571579159361135680228472 283:0.0062527424 1470:0.0025471577 1471:0.0027816261 1490:0.00095616741 1509:0.00053070288 1513:0.0032971178 6410:0.00016642491 6819:0.00028496655 6876:0.00032085262 #
566.53888571579159361135680228472 37:0.0083792442 240:0.0029111626 249:0.0098167723 389:0.0046635531 3108:0.00070437457 6119:0.00013750826 6120:0.0001449312 6121:0.00027895474 6122:0.00027501653 #
-566.53888571579159361135680228472 96:0.00084517273 103:0.0082521904 107:0.0059442255 226:0.0011315821 599:0.0022026142 601:0.00071197579 630:0.00075906527 732:0.00055230292 3110:3.1140862e-05 3532:8.7077606e-05 5010:9.6617463e-05 5975:2.4024797e-05 7040:9.1082375e-06 #
-566.53888571579159361135680228472 82:0.0011894044 96:0.00084517273 103:0.0082521904 107:0.0059442255 135:0.0030232377 156:0.00040224235 335:0.0017145571 362:0.0050598066 387:0.0021137008 441:0.0019715028 476:0.0074809957 1035:0.0016824227 1127:0.000436776 1374:0.00035485515 #
566.53888571579159361135680228472 7:0.0081517985 8:0.016384553 28:0.0096869301 38:0.016767683 42:0.006629345 89:0.0040338906 102:0.0068200324 105:0.016319668 160:0.0086860526 201:0.014689588 267:0.005499742 268:0.0027653328 292:0.0026715735 456:0.0036858167 1045:0.0064050201 1255:0.00055109878 1316:0.00019324161 1596:0.0004111093 3107:0.00049927476 3108:0.00070437457 3109:0.00038446946 3154:7.9701356e-05 3155:0.00011739576 3156:5.2540261e-05 #
566.53888571579159361135680228472 8:0.016384553 9:0.016393851 10:0.019789666 12:0.0088669201 15:0.0023581535 16:0.003842247 17:0.0063943076 18:0.021749511 24:0.0094825402 25:0.033538625 26:0.012593169 28:0.0096869301 30:0.0022381698 32:0.0046225982 34:0.0054362128 35:0.0074010426 38:0.016767683 39:0.0020475839 40:0.019268874 41:0.0037066876 43:0.010510835 44:0.013149623 51:0.0046684179 54:0.01810213 56:0.0037437617 57:0.0026196798 59:0.0035129234 66:0.0014751933 71:0.0064679445 72:0.0023691521 73:0.0071287141 75:0.00074221403 78:0.0030796931 80:0.0052598831 89:0.0040338906 96:0.00084517273 99:0.00033705472 103:0.0082521904 105:0.016319668 114:0.0020065259 116:0.0058823037 120:0.0016063056 121:0.0055785002 126:0.0059264963 132:0.0012673686 133:0.0026865716 136:0.00090351363 137:0.0075839534 146:0.0027534699 148:0.0033664149 149:0.0047317133 155:0.00098243845 158:0.0020485534 159:0.0012432248 160:0.0086860526 164:0.0051268889 170:0.0025355674 171:0.0011286456 173:0.00086431153 176:0.00057865371 180:0.0043829381 194:0.0080064787 195:0.0041628671 196:0.0060827904 200:0.0052741929 201:0.014689588 211:0.0033291113 212:0.00053734303 217:0.0017320096 218:0.00058287493 248:0.0044215857 249:0.0098167723 260:0.0055479272 261:0.0061365482 265:0.01007227 269:0.00059616903 272:0.0045888005 277:0.0059152646 278:0.002992729 279:0.000442655 281:0.0025997253 283:0.0062527424 286:0.0017849068 287:0.00052865205 288:0.0029193591 289:0.0010806832 290:0.0011382346 294:0.003883918 298:0.00040327304 299:0.0022997088 305:0.0033347225 306:0.0042380076 307:0.0038748032 310:0.0035155544 313:0.0029094089 318:0.0049058772 322:0.00034457553 338:0.0021260618 342:0.0011984016 343:0.00139645 348:0.0031609824 350:0.0076549812 351:9.6620803e-05 352:0.0014391096 353:9.6620803e-05 354:8.5437656e-05 357:0.0017931662 358:0.0010465623 360:0.0023017763 363:0.0021962137 364:0.0019953223 367:0.0024183965 375:0.0055939667 377:0.0023753934 382:0.00061076001 383:0.0036554183 384:0.0012415339 385:0.00059693941 390:0.0019806358 391:0.0010918716 392:0.00031203177 394:0.0044576922 405:0.0016288254 406:0.0021923161 407:0.0029432345 410:0.002992959 414:0.00080373429 426:0.0015029378 430:0.0012855664 442:0.0033286386 456:0.0036858167 458:0.0020801506 476:0.0074809957 488:0.0011445045 490:0.0010422411 550:0.0075062169 584:0.0015027506 588:0.0017472146 608:0.0036667094 621:0.00072922319 635:0.0047766371 652:0.0031660551 711:0.0016288182 719:0.0034205627 722:0.0023503609 723:0.00069926557 743:0.0031776363 770:0.0021074559 771:0.00019360252 801:0.00061552029 802:0.0001956596 803:0.00094984402 807:0.00095140835 808:0.00075517327 816:0.00038029332 817:0.0023328962 820:0.00035923862 825:0.0012354332 828:0.0016849556 831:0.0016546856 842:0.0023054637 855:0.0015956238 863:0.0011985776 870:0.0016762251 904:0.0010132007 918:0.00035865611 1002:0.00060724962 1039:0.0019428403 1095:0.001849775 1112:0.0011537983 1135:0.00077076076 1189:0.00091442559 1190:0.0010701157 1193:0.0003314651 1195:0.0015206819 1244:0.00020043735 1249:0.00069384172 1305:0.0003314651 1388:0.00091294228 1401:0.00048889976 1404:0.00040483309 1412:0.00026517207 1431:0.00075241888 1437:0.00078997726 1443:0.000763305 1462:0.00023910408 1538:0.00032094002 1554:0.0011177985 1555:0.00071642839 1576:0.0037570475 1667:0.00035865611 1668:0.00017632215 1689:0.0014640497 1756:0.0005946302 1819:0.00068887346 1871:0.00039830952 1895:0.00042178354 1917:0.00087978906 2055:0.00076927326 2232:0.00027169098 2242:0.00065921014 2243:0.0003877595 2406:0.00058744522 2460:0.00011955204 2462:0.00076514931 2463:0.00024399324 2575:0.00039015131 2586:0.0010188412 2693:0.0003314651 2699:0.00065168418 2873:0.00062823709 2894:0.00012882329 3007:0.0001800733 3167:0.00031880543 3327:7.2029317e-05 3587:0.0004164273 3610:0.00022934029 3628:0.00024934573 3752:0.00016520538 3822:0.00035677812 4218:0.00059926469 4489:0.00010804398 5408:7.3775838e-05 5550:8.8161076e-05 5586:8.8161076e-05 5597:0.00024963738 5842:0.00013750826 5901:5.2540261e-05 5902:5.2540261e-05 5903:5.2540261e-05 5904:5.2540261e-05 5905:9.6620803e-05 5906:5.2540261e-05 5907:4.8310401e-05 5908:9.6620803e-05 5909:0.00040665542 5910:9.1672184e-05 5911:0.00010508052 5912:5.2540261e-05 5913:5.2540261e-05 #
566.53888571579159361135680228472 5:0.00692527 8:0.016384553 9:0.016393851 10:0.019789666 16:0.003842247 17:0.0063943076 18:0.021749511 24:0.0094825402 25:0.033538625 28:0.0096869301 29:0.0021243151 30:0.0022381698 32:0.0046225982 34:0.0054362128 35:0.0074010426 38:0.016767683 40:0.019268874 43:0.010510835 44:0.013149623 51:0.0046684179 54:0.01810213 73:0.0071287141 78:0.0030796931 80:0.0052598831 92:0.0022823396 96:0.00084517273 105:0.016319668 107:0.0059442255 116:0.0058823037 121:0.0055785002 130:0.0074554086 131:0.0044333953 133:0.0026865716 136:0.00090351363 137:0.0075839534 150:0.003141888 160:0.0086860526 164:0.0051268889 180:0.0043829381 187:0.0027644807 190:0.0045617339 194:0.0080064787 196:0.0060827904 199:0.0018086466 200:0.0052741929 201:0.014689588 214:0.0011974461 231:0.00060867326 251:0.002137885 254:0.0018404634 258:0.00076134305 267:0.005499742 268:0.0027653328 283:0.0062527424 317:0.003806636 321:0.0015024155 335:0.0017145571 345:0.0015957316 359:0.0033428811 383:0.0036554183 385:0.00059693941 387:0.0021137008 389:0.0046635531 390:0.0019806358 394:0.0044576922 395:0.0030973493 418:0.00048400968 452:0.0054846518 458:0.0020801506 459:0.0016814971 460:0.0014152089 476:0.0074809957 494:0.0018454747 516:0.0039048493 518:0.00034259108 535:0.0015148964 543:0.0016184566 550:0.0075062169 598:0.001355767 607:0.0027697606 633:0.0031463953 695:0.0012368526 710:0.002401748 724:0.0033083567 730:0.0013370522 735:0.0015095737 767:0.0016119012 803:0.00094984402 834:0.001354482 860:0.00039015131 863:0.0011985776 933:0.00040327304 952:0.003111905 954:0.0014399011 979:0.0026475415 1005:0.00098268921 1017:0.00084322499 1126:0.0003941271 1150:0.0011059061 1155:0.0016783044 1187:0.00049869146 1263:0.001516912 1326:0.0014436146 1339:0.0018238428 1367:0.0013056201 1392:0.00067269435 1453:0.00097583409 1519:0.001040076 1561:0.0014406275 1609:0.00046201985 1694:0.00088837824 1711:0.0014074573 1762:0.0011160554 1771:0.00099913427 1981:0.00082504173 2015:0.00033376485 2242:0.00065921014 2303:0.00038296779 2321:0.00095872825 2344:0.00095632824 2356:0.00097537827 2406:0.00058744522 2596:0.00036410714 2645:0.00039775812 2970:0.00030261322 2977:0.00052735704 2988:0.00030833198 3048:0.00019738523 3614:0.00046431588 3775:0.00026942277 4034:0.00026724979 4091:0.00018721906 4415:0.00014574273 4694:0.00022699425 5229:0.00027392345 5686:0.0017037175 6257:7.9701356e-05 6465:0.00010371636 6853:0.00012815649 6854:4.5836092e-05 6855:4.8310401e-05 6856:3.457212e-05 6857:3.9131919e-05 #
-566.53888571579159361135680228472 6:0.0061012879 7:0.0081517985 8:0.016384553 9:0.016393851 10:0.019789666 11:0.0071980599 12:0.0088669201 16:0.003842247 17:0.0063943076 18:0.021749511 24:0.0094825402 25:0.033538625 26:0.012593169 28:0.0096869301 30:0.0022381698 32:0.0046225982 33:0.0037169838 35:0.0074010426 38:0.016767683 39:0.0020475839 40:0.019268874 43:0.010510835 44:0.013149623 45:0.0050908024 46:0.0021581934 49:0.001254169 51:0.0046684179 54:0.01810213 57:0.0026196798 73:0.0071287141 78:0.0030796931 80:0.0052598831 82:0.0011894044 83:0.0023650767 84:0.0035845381 96:0.00084517273 105:0.016319668 107:0.0059442255 116:0.0058823037 121:0.0055785002 126:0.0059264963 130:0.0074554086 137:0.0075839534 142:0.006261297 143:0.0033244949 146:0.0027534699 148:0.0033664149 150:0.003141888 160:0.0086860526 180:0.0043829381 194:0.0080064787 195:0.0041628671 196:0.0060827904 201:0.014689588 208:0.0039724386 211:0.0033291113 212:0.00053734303 215:0.0012909906 223:0.0017740187 230:0.00034054011 251:0.002137885 267:0.005499742 269:0.00059616903 281:0.0025997253 299:0.0022997088 306:0.0042380076 309:0.00039338437 310:0.0035155544 313:0.0029094089 318:0.0049058772 322:0.00034457553 326:0.0018623009 327:0.0027215697 358:0.0010465623 364:0.0019953223 370:0.0030245529 375:0.0055939667 377:0.0023753934 383:0.0036554183 389:0.0046635531 395:0.0030973493 400:0.00039444939 422:0.00048547616 447:0.0018238428 450:0.0023387719 452:0.0054846518 463:0.0057069832 464:0.010258848 465:0.0073727644 466:0.0017025598 467:0.0049595432 480:0.00065822463 490:0.0010422411 491:0.0036881953 494:0.0018454747 496:0.00060619478 501:0.00046768715 502:0.00055127178 504:0.0026680927 511:0.00042257246 515:0.00025112767 525:0.0045690723 535:0.0015148964 550:0.0075062169 554:0.0017669322 599:0.0022026142 606:0.0010230113 607:0.0027697606 640:0.003106012 648:0.0012280481 712:0.00098809949 732:0.00055230292 745:0.0013221171 752:0.0034145848 755:0.00054512697 763:0.0027768339 773:4.8310401e-05 778:0.00068474672 798:0.00048272187 799:0.00078477745 827:0.0021927487 831:0.0016546856 845:0.0025166271 856:0.002201583 860:0.00039015131 867:0.0019985817 883:0.0019487372 888:0.0012901955 919:0.0010198193 952:0.003111905 966:0.0027585521 986:0.0018303001 1028:0.00033928521 1042:0.0023669985 1043:0.0012407072 1077:0.0021132559 1112:0.0011537983 1132:0.0005003566 1141:0.0005836995 1166:0.0012797446 1185:0.00060620863 1202:0.00063983357 1213:0.0012438989 1225:0.0020562089 1227:0.00082130806 1247:0.00028082859 1271:0.0016054438 1288:0.00086250127 1332:0.00067078409 1391:0.0016205856 1406:0.00037907349 1461:0.00084322499 1482:0.0011133211 1517:0.00072737498 1561:0.0014406275 1577:0.0014915756 1620:0.00050543569 1648:0.00058650423 1694:0.00088837824 1816:0.00029935807 1849:0.00041279022 1955:0.00092175917 1978:0.00035186432 2019:0.00039131919 2074:0.00014723814 2134:0.00015940271 2203:0.00025821541 2297:0.00075641891 2344:0.00095632824 2347:0.00063376362 2356:0.00097537827 2503:0.0006689349 2636:0.00069067272 2652:0.00060645206 2662:0.0001226888 2714:0.00021861409 2977:0.00052735704 2991:5.8895253e-05 3078:0.00056993309 3098:0.00062050309 3186:0.00027037718 3449:5.3055381e-05 3469:0.00031114908 3474:0.0026790656 3475:0.0029963234 3476:0.00041114006 3484:0.00022744409 3485:0.00017632215 3511:0.00016363301 3609:0.00025692023 3634:0.00016329029 3985:3.6435682e-05 4007:0.00025267762 #
-566.53888571579159361135680228472 8:0.016384553 9:0.016393851 10:0.019789666 15:0.0023581535 17:0.0063943076 18:0.021749511 25:0.033538625 26:0.012593169 28:0.0096869301 30:0.0022381698 34:0.0054362128 35:0.0074010426 36:0.0039932295 38:0.016767683 40:0.019268874 41:0.0037066876 42:0.006629345 43:0.010510835 54:0.01810213 57:0.0026196798 58:0.00053228502 65:0.0026063072 71:0.0064679445 72:0.0023691521 80:0.0052598831 83:0.0023650767 84:0.0035845381 92:0.0022823396 96:0.00084517273 102:0.0068200324 107:0.0059442255 114:0.0020065259 143:0.0033244949 148:0.0033664149 180:0.0043829381 187:0.0027644807 188:0.0027945316 194:0.0080064787 196:0.0060827904 201:0.014689588 211:0.0033291113 214:0.0011974461 216:0.0010296942 249:0.0098167723 260:0.0055479272 267:0.005499742 283:0.0062527424 290:0.0011382346 299:0.0022997088 306:0.0042380076 307:0.0038748032 317:0.003806636 326:0.0018623009 327:0.0027215697 332:0.0024832881 343:0.00139645 364:0.0019953223 376:0.0006593095 391:0.0010918716 394:0.0044576922 395:0.0030973493 400:0.00039444939 420:0.0087039359 447:0.0018238428 491:0.0036881953 511:0.00042257246 514:0.0021314137 516:0.0039048493 576:0.0020282923 590:0.0010518433 635:0.0047766371 644:0.0017325482 658:0.00060201826 707:0.0015271738 724:0.0033083567 734:0.000241552 735:0.0015095737 736:0.00069227791 737:0.00026454337 738:0.00020803115 745:0.0013221171 746:0.00021372491 772:0.00024816804 778:0.00068474672 826:7.4752737e-05 842:0.0023054637 856:0.002201583 867:0.0019985817 914:0.0003963674 952:0.003111905 966:0.0027585521 986:0.0018303001 1010:0.00035426402 1032:0.0010034023 1039:0.0019428403 1045:0.0064050201 1057:0.00075535092 1356:0.00044667738 1408:0.0014885536 1449:0.00041486544 1488:0.0016555275 1519:0.001040076 1590:0.00056171836 1623:0.00037012933 1802:0.00022837355 1819:0.00068887346 1871:0.00039830952 2028:0.00099096517 2150:0.00049247104 2214:0.000555187 2411:8.1331083e-05 2524:0.0008070115 2597:0.00018217841 2620:0.00060846505 2784:0.0008741346 4238:9.8692195e-05 4353:0.00031991678 5085:7.4752737e-05 5086:8.8161076e-05 5087:4.4080538e-05 5176:0.00012481271 5238:4.0665542e-05 5523:0.00016720771 5524:4.4080538e-05 5733:0.00036410714 6545:6.398336e-05 6849:3.7907346e-05 7820:4.4080538e-05 #
-566.53888571579159361135680228472 5:0.00692527 8:0.016384553 9:0.016393851 10:0.019789666 12:0.0088669201 13:0.0021064437 16:0.003842247 17:0.0063943076 18:0.021749511 24:0.0094825402 25:0.033538625 26:0.012593169 27:0.001550884 28:0.0096869301 30:0.0022381698 32:0.0046225982 33:0.0037169838 34:0.0054362128 35:0.0074010426 36:0.0039932295 38:0.016767683 39:0.0020475839 40:0.019268874 41:0.0037066876 42:0.006629345 43:0.010510835 44:0.013149623 49:0.001254169 50:0.0055565289 51:0.0046684179 54:0.01810213 56:0.0037437617 59:0.0035129234 66:0.0014751933 72:0.0023691521 73:0.0071287141 80:0.0052598831 82:0.0011894044 84:0.0035845381 89:0.0040338906 96:0.00084517273 114:0.0020065259 121:0.0055785002 122:0.00045517518 131:0.0044333953 137:0.0075839534 142:0.006261297 148:0.0033664149 150:0.003141888 154:0.0027673454 160:0.0086860526 195:0.0041628671 196:0.0060827904 197:0.0035134612 200:0.0052741929 201:0.014689588 216:0.0010296942 220:0.00321993 223:0.0017740187 226:0.0011315821 249:0.0098167723 254:0.0018404634 255:0.0022818455 260:0.0055479272 261:0.0061365482 265:0.01007227 267:0.005499742 269:0.00059616903 283:0.0062527424 284:0.0018264486 294:0.003883918 301:0.00058006606 306:0.0042380076 309:0.00039338437 314:0.0012565809 319:0.0020132933 323:0.00041648315 330:0.002108996 331:0.0015102972 334:0.00089903956 335:0.0017145571 348:0.0031609824 352:0.0014391096 359:0.0033428811 362:0.0050598066 370:0.0030245529 375:0.0055939667 389:0.0046635531 394:0.0044576922 424:0.0011148122 427:0.005176858 442:0.0033286386 443:0.00083493383 444:0.00095009716 448:0.0029682626 449:0.0058757663 458:0.0020801506 463:0.0057069832 465:0.0073727644 476:0.0074809957 481:0.00019378356 491:0.0036881953 494:0.0018454747 515:0.00025112767 530:0.00092347735 531:0.00070868724 535:0.0015148964 543:0.0016184566 585:0.0019130638 598:0.001355767 602:0.00049373577 607:0.0027697606 633:0.0031463953 644:0.0017325482 650:0.00034741373 681:0.0013591015 701:0.0012779855 706:0.00049599819 716:0.00076288299 719:0.0034205627 726:0.00078498473 727:0.0013097937 732:0.00055230292 752:0.0034145848 795:0.00077435962 808:0.00075517327 813:0.00050299463 827:0.0021927487 835:0.00037225205 842:0.0023054637 856:0.002201583 861:0.0020653247 883:0.0019487372 887:0.0016442371 893:0.0010426068 1011:0.00092674483 1019:0.00098692614 1078:0.00061786122 1092:0.00036606001 1095:0.001849775 1105:0.0004478835 1232:0.00080644654 1271:0.0016054438 1307:0.00046896783 1411:0.00074107462 1417:0.00030183748 1418:0.00093769003 1434:0.00063339807 1443:0.000763305 1447:0.00016642491 1461:0.00084322499 1497:0.00027454502 1543:0.00044126 1548:0.00092632434 1576:0.0037570475 1720:0.00062114646 1728:0.00051170756 1739:0.0015318921 1774:0.00022394175 1777:0.0008460207 1787:0.0004567471 1816:0.00029935807 1842:0.00082323467 1958:0.0012903413 1978:0.00035186432 2237:0.00013258604 2304:0.00044761537 2417:0.00011066375 2456:0.00015940271 2478:0.00013960824 2503:0.0006689349 2840:0.00048873451 2959:0.00012481869 2977:0.00052735704 2987:5.7335074e-05 2993:0.00034902061 3279:0.00088437169 3420:0.00013703643 3449:5.3055381e-05 3586:0.00036335443 3609:0.00025692023 3619:0.0001336249 3634:0.00016329029 4279:3.5620818e-05 4789:4.4080538e-05 4793:4.5836092e-05 5101:4.0665542e-05 5380:0.00031143153 5399:0.00015510502 5494:3.0844109e-05 5739:0.00015652768 6173:0.00014950547 6428:8.3212457e-05 6471:4.8310401e-05 6755:0.00011955204 6849:3.7907346e-05 6999:0.00016266217 7331:3.9131919e-05 8082:3.2205822e-05 #
566.53888571579159361135680228472 6:0.0061012879 135:0.0030232377 154:0.0027673454 160:0.0086860526 448:0.0029682626 526:0.0020059568 979:0.0026475415 1179:0.0005799387 1584:0.00079661806 4393:3.9850678e-05 4394:4.2718828e-05 4395:4.2718828e-05 4396:3.0844109e-05 #
566.53888571579159361135680228472 6:0.0061012879 7:0.0081517985 281:0.0025997253 467:0.0049595432 662:0.002239248 1354:0.0012473252 1608:0.0013359392 6691:0.00041252482 #
566.53888571579159361135680228472 17:0.0063943076 24:0.0094825402 82:0.0011894044 154:0.0027673454 160:0.0086860526 394:0.0044576922 1608:0.0013359392 2394:0.0008685881 3950:0.0018582197 4866:0.0017079527 6623:8.5437656e-05 #
566.53888571579159361135680228472 50:0.0055565289 202:0.0021653189 565:0.0022224227 1614:0.001492832 2324:0.007692859 2339:0.0056625274 2350:0.00076834316 #
-566.53888571579159361135680228472 56:0.0037437617 130:0.0074554086 158:0.0020485534 550:0.0075062169 1871:0.00039830952 2149:0.0014606927 3937:0.00060398952 5595:3.06722e-05 #
-16.430257407020754101267812075093 8:0.016384553 10:0.019789666 17:0.0063943076 18:0.021749511 24:0.0094825402 25:0.033538625 26:0.012593169 29:0.0021243151 30:0.0022381698 40:0.019268874 43:0.010510835 44:0.013149623 50:0.0055565289 55:0.00062470528 80:0.0052598831 84:0.0035845381 96:0.00084517273 103:0.0082521904 160:0.0086860526 171:0.0011286456 197:0.0035134612 200:0.0052741929 201:0.014689588 248:0.0044215857 249:0.0098167723 306:0.0042380076 334:0.00089903956 348:0.0031609824 447:0.0018238428 452:0.0054846518 456:0.0036858167 457:0.003106012 459:0.0016814971 535:0.0015148964 586:0.0017376649 607:0.0027697606 730:0.0013370522 760:0.00034699979 763:0.0027768339 825:0.0012354332 909:0.0017584203 1038:0.00028465877 1039:0.0019428403 1040:0.00053045404 1041:0.00015162939 1155:0.0016783044 1249:0.00069384172 1564:0.00046307064 1588:0.00079329044 1893:0.00066494307 1915:0.00067153171 2699:0.00065168418 2727:0.00036901433 3359:0.00063616631 3506:0.00015162939 4429:4.1606228e-05 #
-89.983168528507576411357149481773 8:0.016384553 10:0.019789666 17:0.0063943076 25:0.033538625 38:0.016767683 54:0.01810213 56:0.0037437617 78:0.0030796931 96:0.00084517273 99:0.00033705472 105:0.016319668 115:0.00036657258 133:0.0026865716 158:0.0020485534 160:0.0086860526 200:0.0052741929 201:0.014689588 207:0.00053781416 216:0.0010296942 342:0.0011984016 395:0.0030973493 525:0.0045690723 550:0.0075062169 564:0.00063812139 607:0.0027697606 612:0.00017838263 707:0.0015271738 712:0.00098809949 726:0.00078498473 815:0.00042766618 946:0.00030423253 1145:0.0008552699 1411:0.00074107462 1439:0.00019599206 1539:0.00055944751 1718:0.00066186656 1739:0.0015318921 1871:0.00039830952 2066:0.00041362381 2166:0.00023573905 2188:0.00014100346 2322:0.00025224363 2344:0.00095632824 2389:0.00013137571 2419:0.00080216059 2719:0.000500264 2802:0.00028993984 3048:0.00019738523 3267:0.00051074947 3671:0.00039704426 4482:2.776182e-05 #
566.53888571579159361135680228472 8:0.016384553 12:0.0088669201 14:0.0094003771 18:0.021749511 25:0.033538625 26:0.012593169 35:0.0074010426 44:0.013149623 54:0.01810213 57:0.0026196798 96:0.00084517273 114:0.0020065259 133:0.0026865716 154:0.0027673454 180:0.0043829381 195:0.0041628671 197:0.0035134612 198:0.000919807 201:0.014689588 217:0.0017320096 248:0.0044215857 283:0.0062527424 286:0.0017849068 302:0.00012815649 307:0.0038748032 311:0.00036657258 318:0.0049058772 332:0.0024832881 394:0.0044576922 420:0.0087039359 431:0.00025821541 507:0.0011663175 543:0.0016184566 597:0.0023130823 608:0.0036667094 624:0.001195748 756:0.00010477291 767:0.0016119012 963:0.00053034414 1042:0.0023669985 1255:0.00055109878 1580:0.0016005308 2802:0.00028993984 3121:0.00044317648 3614:0.00046431588 4160:0.0005003566 4166:0.00044732096 4167:0.00047820815 4168:0.00020803115 4762:0.0002204027 5445:0.00012481869 5482:8.5437656e-05 6207:0.0013826285 6208:0.00017087531 6327:4.8310401e-05 #
566.53888571579159361135680228472 6:0.0061012879 8:0.016384553 9:0.016393851 10:0.019789666 12:0.0088669201 17:0.0063943076 18:0.021749511 24:0.0094825402 25:0.033538625 26:0.012593169 28:0.0096869301 30:0.0022381698 32:0.0046225982 34:0.0054362128 36:0.0039932295 38:0.016767683 40:0.019268874 43:0.010510835 44:0.013149623 50:0.0055565289 51:0.0046684179 54:0.01810213 56:0.0037437617 57:0.0026196798 65:0.0026063072 71:0.0064679445 72:0.0023691521 73:0.0071287141 80:0.0052598831 96:0.00084517273 103:0.0082521904 104:0.0007545937 114:0.0020065259 126:0.0059264963 133:0.0026865716 137:0.0075839534 150:0.003141888 194:0.0080064787 201:0.014689588 246:0.0012975793 249:0.0098167723 260:0.0055479272 265:0.01007227 272:0.0045888005 291:0.0027949237 292:0.0026715735 313:0.0029094089 318:0.0049058772 330:0.002108996 348:0.0031609824 350:0.0076549812 355:0.00057447283 360:0.0023017763 375:0.0055939667 380:0.00063169404 423:0.00096283178 449:0.0058757663 458:0.0020801506 491:0.0036881953 524:0.0026481443 545:0.00091918174 607:0.0027697606 608:0.0036667094 652:0.0031660551 712:0.00098809949 719:0.0034205627 729:0.0009953283 770:0.0021074559 813:0.00050299463 828:0.0016849556 842:0.0023054637 855:0.0015956238 856:0.002201583 862:0.00030833198 873:0.0022509233 883:0.0019487372 887:0.0016442371 960:0.0012817176 1002:0.00060724962 1087:0.0022511878 1091:0.0012808595 1195:0.0015206819 1196:0.00042128874 1214:0.0017381095 1271:0.0016054438 1303:0.00051388663 1409:0.0014513195 1411:0.00074107462 1470:0.0025471577 1528:0.00098604325 1578:0.00058784505 1740:0.00056103634 1742:0.0010795256 1762:0.0011160554 1819:0.00068887346 2110:0.0015946297 2356:0.00097537827 2421:0.00028811727 2788:0.00058080757 2949:0.00044943756 3018:0.00048987084 3133:0.0016819367 3134:0.00017129554 3139:7.9701356e-05 3140:0.00031584702 3141:9.1672184e-05 3142:0.00043479359 3143:9.4754105e-05 3144:0.00018688185 3145:9.1672184e-05 3146:0.00083753024 3147:0.00013703643 3148:7.2871364e-05 3149:7.4752737e-05 #
566.53888571579159361135680228472 7:0.0081517985 8:0.016384553 9:0.016393851 10:0.019789666 16:0.003842247 17:0.0063943076 18:0.021749511 24:0.0094825402 25:0.033538625 26:0.012593169 28:0.0096869301 30:0.0022381698 32:0.0046225982 38:0.016767683 39:0.0020475839 40:0.019268874 42:0.006629345 43:0.010510835 44:0.013149623 48:0.0015171721 54:0.01810213 66:0.0014751933 71:0.0064679445 73:0.0071287141 82:0.0011894044 83:0.0023650767 84:0.0035845381 87:0.0033595709 96:0.00084517273 107:0.0059442255 116:0.0058823037 131:0.0044333953 137:0.0075839534 148:0.0033664149 160:0.0086860526 194:0.0080064787 197:0.0035134612 201:0.014689588 214:0.0011974461 216:0.0010296942 248:0.0044215857 249:0.0098167723 254:0.0018404634 267:0.005499742 268:0.0027653328 284:0.0018264486 316:0.00015601589 319:0.0020132933 327:0.0027215697 332:0.0024832881 357:0.0017931662 358:0.0010465623 362:0.0050598066 363:0.0021962137 370:0.0030245529 386:0.001897959 389:0.0046635531 390:0.0019806358 394:0.0044576922 420:0.0087039359 427:0.005176858 451:0.0010630866 479:0.0034885367 480:0.00065822463 519:0.00247108 523:0.0040119756 542:0.00629802 569:0.0018068004 609:0.00091349421 710:0.002401748 727:0.0013097937 761:0.0010510057 765:0.00076288299 812:0.0016667643 842:0.0023054637 967:0.0010008361 975:0.0023265649 1036:0.00093071925 1037:0.00087460934 1042:0.0023669985 1091:0.0012808595 1108:0.0010371637 1150:0.0011059061 1206:0.00057734334 1332:0.00067078409 1608:0.0013359392 1620:0.00050543569 1664:0.00033677489 1704:0.0015537484 2052:0.00055746123 2230:0.00052549253 2291:0.00072771893 2394:0.0008685881 2469:0.0002213275 2717:0.00023236101 3344:0.00010477291 3359:0.00063616631 3587:0.0004164273 3950:0.0018582197 4000:0.00012481869 4304:0.00018688185 4866:0.0017079527 4869:9.6620803e-05 4873:0.0010444251 4874:0.00017505819 4875:0.0001956596 5480:9.1672184e-05 5481:0.00011955204 6623:8.5437656e-05 6624:5.2540261e-05 6625:0.00021359415 6626:4.2718828e-05 6627:0.00032085262 6628:0.00012815649 6629:4.5836092e-05 6630:5.2540261e-05 6631:9.6620803e-05 6632:2.7454071e-05 6633:3.7907346e-05 6634:4.5836092e-05 6635:0.00013750826 6636:0.00045836091 #
566.53888571579159361135680228472 8:0.016384553 9:0.016393851 10:0.019789666 15:0.0023581535 16:0.003842247 17:0.0063943076 18:0.021749511 25:0.033538625 26:0.012593169 28:0.0096869301 29:0.0021243151 30:0.0022381698 31:0.0062816199 33:0.0037169838 34:0.0054362128 38:0.016767683 39:0.0020475839 40:0.019268874 42:0.006629345 43:0.010510835 44:0.013149623 51:0.0046684179 54:0.01810213 71:0.0064679445 73:0.0071287141 78:0.0030796931 89:0.0040338906 96:0.00084517273 105:0.016319668 114:0.0020065259 121:0.0055785002 126:0.0059264963 131:0.0044333953 135:0.0030232377 148:0.0033664149 160:0.0086860526 187:0.0027644807 188:0.0027945316 190:0.0045617339 201:0.014689588 211:0.0033291113 231:0.00060867326 249:0.0098167723 267:0.005499742 294:0.003883918 306:0.0042380076 309:0.00039338437 310:0.0035155544 348:0.0031609824 357:0.0017931662 370:0.0030245529 389:0.0046635531 441:0.0019715028 442:0.0033286386 456:0.0036858167 465:0.0073727644 471:0.0039646924 472:0.0012310406 495:0.00066404243 535:0.0015148964 599:0.0022026142 612:0.00017838263 633:0.0031463953 701:0.0012779855 705:0.0012942578 706:0.00049599819 710:0.002401748 724:0.0033083567 732:0.00055230292 745:0.0013221171 781:0.00023093382 852:0.0020669547 867:0.0019985817 1035:0.0016824227 1044:0.0010247302 1188:0.001090288 1225:0.0020562089 1287:0.0015689215 1288:0.00086250127 1475:0.0007854274 1486:0.00075803284 1533:0.000271611 1620:0.00050543569 1664:0.00033677489 1775:0.00060460728 1819:0.00068887346 1855:0.0007361109 1913:0.00029148546 2242:0.00065921014 2367:0.0022311688 2422:0.0011867719 4312:0.00015995839 5651:0.00072601455 6545:6.398336e-05 7834:0.00012199662 7861:0.00072465598 7862:0.00043479359 7863:4.8310401e-05 7864:4.8310401e-05 7865:5.2540261e-05 7866:9.6620803e-05 7867:4.5836092e-05 #
-566.53888571579159361135680228472 6:0.0061012879 8:0.016384553 9:0.016393851 10:0.019789666 12:0.0088669201 14:0.0094003771 16:0.003842247 17:0.0063943076 18:0.021749511 24:0.0094825402 25:0.033538625 32:0.0046225982 33:0.0037169838 38:0.016767683 40:0.019268874 42:0.006629345 44:0.013149623 51:0.0046684179 54:0.01810213 59:0.0035129234 78:0.0030796931 96:0.00084517273 103:0.0082521904 105:0.016319668 126:0.0059264963 130:0.0074554086 135:0.0030232377 160:0.0086860526 190:0.0045617339 201:0.014689588 208:0.0039724386 219:0.00053018442 226:0.0011315821 229:0.00068918511 249:0.0098167723 255:0.0022818455 265:0.01007227 272:0.0045888005 284:0.0018264486 317:0.003806636 321:0.0015024155 383:0.0036554183 389:0.0046635531 440:0.00072495395 456:0.0036858167 466:0.0017025598 471:0.0039646924 473:0.00035954753 476:0.0074809957 487:0.00034083863 494:0.0018454747 502:0.00055127178 535:0.0015148964 543:0.0016184566 545:0.00091918174 549:0.00035190847 587:0.00059375225 630:0.00075906527 652:0.0031660551 662:0.002239248 702:0.00069787196 703:0.0026281516 709:0.0025812942 719:0.0034205627 797:0.0019823406 852:0.0020669547 1020:0.00043038212 1098:0.00030672201 1225:0.0020562089 1249:0.00069384172 1287:0.0015689215 1486:0.00075803284 1576:0.0037570475 1921:0.00036435682 3616:3.3961373e-05 3719:0.0001449312 3721:4.5836092e-05 5355:4.8310401e-05 7040:9.1082375e-06 #
-566.53888571579159361135680228472 5:0.00692527 8:0.016384553 9:0.016393851 10:0.019789666 16:0.003842247 17:0.0063943076 18:0.021749511 24:0.0094825402 25:0.033538625 26:0.012593169 28:0.0096869301 30:0.0022381698 32:0.0046225982 33:0.0037169838 34:0.0054362128 38:0.016767683 40:0.019268874 41:0.0037066876 43:0.010510835 44:0.013149623 51:0.0046684179 52:0.0032175416 54:0.01810213 56:0.0037437617 59:0.0035129234 72:0.0023691521 73:0.0071287141 78:0.0030796931 84:0.0035845381 85:0.00088871631 89:0.0040338906 96:0.00084517273 99:0.00033705472 114:0.0020065259 116:0.0058823037 125:0.00067901798 137:0.0075839534 150:0.003141888 160:0.0086860526 164:0.0051268889 171:0.0011286456 195:0.0041628671 196:0.0060827904 197:0.0035134612 201:0.014689588 213:0.00029148546 214:0.0011974461 219:0.00053018442 223:0.0017740187 226:0.0011315821 230:0.00034054011 250:0.0022918163 261:0.0061365482 265:0.01007227 267:0.005499742 269:0.00059616903 271:0.0062686671 280:0.00028812551 283:0.0062527424 291:0.0027949237 294:0.003883918 307:0.0038748032 309:0.00039338437 316:0.00015601589 318:0.0049058772 322:0.00034457553 324:0.0012808595 337:0.0033616312 345:0.0015957316 348:0.0031609824 350:0.0076549812 356:0.00061876723 359:0.0033428811 362:0.0050598066 366:0.0013072112 370:0.0030245529 377:0.0023753934 384:0.0012415339 387:0.0021137008 405:0.0016288254 406:0.0021923161 410:0.002992959 427:0.005176858 437:0.00046671918 440:0.00072495395 441:0.0019715028 442:0.0033286386 443:0.00083493383 444:0.00095009716 448:0.0029682626 449:0.0058757663 452:0.0054846518 455:0.003291514 456:0.0036858167 459:0.0016814971 466:0.0017025598 476:0.0074809957 480:0.00065822463 481:0.00019378356 535:0.0015148964 548:4.2718828e-05 564:0.00063812139 597:0.0023130823 599:0.0022026142 601:0.00071197579 606:0.0010230113 607:0.0027697606 614:0.00039033062 615:0.00052648137 628:0.00062194944 633:0.0031463953 656:0.00060792087 681:0.0013591015 692:0.0010510057 694:0.00075266272 729:0.0009953283 732:0.00055230292 737:0.00026454337 755:0.00054512697 759:0.00054893974 761:0.0010510057 763:0.0027768339 770:0.0021074559 797:0.0019823406 842:0.0023054637 881:0.0013157688 888:0.0012901955 907:0.0017951446 986:0.0018303001 1044:0.0010247302 1045:0.0064050201 1054:0.00038029332 1057:0.00075535092 1110:0.00085925352 1113:0.00090526324 1116:0.0012662294 1126:0.0003941271 1127:0.000436776 1137:0.0010355302 1145:0.0008552699 1146:0.00015652768 1179:0.0005799387 1195:0.0015206819 1197:0.00070494728 1262:0.0007344152 1375:0.00081776554 1412:0.00026517207 1438:0.00031585796 1443:0.000763305 1461:0.00084322499 1509:0.00053070288 1516:0.00038160081 1546:0.00088699488 1593:0.00010686246 1737:0.00068984943 1779:0.00024934573 1794:0.00019738439 1816:0.00029935807 1835:0.00027895474 2016:0.00054749893 2028:0.00099096517 2055:0.00076927326 2190:0.00031203177 2296:0.00030309739 2297:0.00075641891 2304:0.00044761537 2318:0.00024675287 2443:0.00049981743 2699:0.00065168418 2840:0.00048873451 2887:0.00033199126 2894:0.00012882329 3100:0.00019323493 3118:0.00059333502 3191:0.0001991008 3379:8.8763758e-05 3457:0.00023670334 4312:0.00015995839 4525:0.00018217841 4788:3.2205822e-05 5005:3.3406224e-05 5082:7.6977936e-05 6440:8.8161076e-05 6441:8.8161076e-05 7331:3.9131919e-05 7372:0.00012199662 8082:3.2205822e-05 #
